instance_id,P_LNM_yes,local_pred,PR,Platelets,CA125,Histology,p53,L1CAM,ER,Cytology,CTMRI
0,0.005059,0.006046,-0.009320610555619068,-0.019494572502357362,-0.23504288864179457,-0.006283269181659364,-0.05054471961511215,-0.011263350868241416,0.011136526935211494,-0.0027694096301162114,-0.09135371178725424
1,0.002515,-0.027227,0.019319214023214577,-0.04537046532566076,-0.21650283474827053,-0.07968664278614082,-0.06986759476076397,-0.036144846321781623,0.04629890690003816,-0.020137558981520993,-0.1332428511336717
2,0.111853,0.129737,0.03753942416147886,-0.05459922514651436,-0.20212220916287402,0.1300100186930768,-0.05448626245352497,-0.03519552133879126,0.05182877114273125,-0.00026924184871961106,-0.12423794304139808
3,0.0,-0.040889,-0.020075230262078445,-0.01723942813873499,-0.2487409798866012,-0.08436937814804654,-0.04490604277792914,0.002070009460019949,0.01965916702407462,-0.014784726249038614,-0.09606467238033467
4,0.013329,0.014778,0.02937673576152914,-0.050118279060081164,-0.22024863489432933,-0.007221098724421357,-0.05460216939897233,-0.058383689635281816,0.03292036627064786,-0.011402562640023593,-0.1616775209150489
5,0.002515,-0.018491,0.03352576875414467,-0.013197084325326826,-0.19022801966360545,-0.07600606775288815,-0.06400669706724577,-0.037735212803735714,0.03373537912148149,-0.013145319089238267,-0.10232491187922675
6,0.013329,0.017483,0.01664787987190944,-0.09727936246106138,-0.21588635816121166,-0.006985936488618256,-0.04963333413880648,-0.027269982532504535,0.027190990041467834,-0.011004931793110214,-0.12706438533883066
7,0.049047,0.197518,0.019323920177575064,-0.02400283258634764,0.22690288579619944,-0.08531959344954272,-0.05561053840913475,-0.04525694649002604,0.02520872136127918,-0.01402701792638373,-0.13414906537519322
8,0.051902,0.299183,0.021278353874072658,-0.019259001347281843,0.22603740141748804,-0.08013408987526435,-0.060973775199095366,-0.03217914789981375,0.06288386066205535,0.02040147044451919,0.09675145162955139
9,0.002515,-0.021536,0.019743831082859545,-0.00335967050751584,-0.21091605254599555,-0.08416933732472193,-0.03591663725111713,-0.035599172028881,0.04000502113827194,-0.0001481717754602376,-0.09105412623768414
10,0.087543,0.125981,0.01606670095634305,-0.052077885063771034,-0.20072609676571485,0.12982221122880902,-0.06536271902546466,-0.02709980636801773,0.02603565194002713,-0.0028671099726165676,-0.11232229800035641
11,0.013329,0.011148,0.022088798421689163,-0.02011386695810616,-0.23942969392830557,-0.01205680867274243,-0.04719815538454997,-0.042156644809926286,0.024735790937563007,-0.026273433863745914,-0.16355647568704956
12,0.002515,-0.026179,0.012274147649507898,-0.04760164401964914,-0.20969097021782565,-0.08770457955758229,-0.04966593200565203,-0.025947836689026324,0.02947168258814174,0.011256091927120198,-0.09074807475619229
13,0.182597,0.124109,-0.02482795982810504,0.011126435873111806,-0.2146555719243065,0.11957244874612145,0.053481697193721416,0.014838166066697706,-0.054453480556922076,0.011922978369851192,-0.10612050924046869
14,0.0,-0.051108,-0.02589559577906385,-0.05435840150521505,-0.22149949065941177,-0.08834765044615349,-0.04868008859150933,-0.011918728832379648,0.027556043345137254,-0.010828859122706402,-0.1471024865864088
15,0.014218,0.024377,0.02056821345715849,-0.023025719445472936,-0.233899722389952,-0.009309499779444947,-0.06119138330140125,-0.01521217921258244,0.02140045220222305,0.008499874557737524,-0.06104365618565897
16,0.013329,0.01379,0.030195026308405017,-0.03351983879864153,-0.2360810383304335,-0.013800703153987669,-0.06372008748397444,-0.027080155063158244,0.045260134509725464,-0.028631351804035577,-0.12905007127268361
17,0.556469,0.302485,0.027416878776193213,-0.03768611554187855,0.2193285938278988,-0.0038561122718906164,0.061584884484270366,-0.009531483765031446,0.04793295197684889,0.017323312646672043,-0.11837807170221873
18,0.002515,-0.027831,0.027829381189188984,-0.053856746095146533,-0.19791400636656128,-0.08587470722882345,-0.05915378132574085,-0.037310041936838644,0.03912639784957563,-0.004093001292960896,-0.12171502965999495
19,0.002515,-0.017144,0.036525948322651124,-0.022786910334190728,-0.1954771572682112,-0.07745019388415414,-0.056628973955023615,-0.012135953201226199,0.04580491355414629,-0.01667369846811335,-0.1274903188486754
20,0.002515,-0.024664,0.020732770836953247,-0.024908874140740726,-0.20659080502224467,-0.08494313037038616,-0.040380019138584605,-0.01656701521835382,0.02767892131223905,-0.02490390232940979,-0.11704274192570839
21,0.14543,0.149941,-0.024560104713607332,-0.02400609971755698,-0.2630345988020543,0.12938906234490138,0.04253938801435941,0.040748837318395084,-0.038934696777227065,0.021274396052810788,-0.08860592250453538
22,0.049047,0.203412,0.03737823792501487,-0.01469755176172297,0.23458991583877514,-0.102082484404657,-0.05667001171099856,-0.024461992391554024,0.017215263770418654,0.025254045304741603,-0.10388317223286689
23,0.002515,-0.021596,0.01677540401463195,-0.03908424980801929,-0.2267489692039452,-0.08204933686073591,-0.028129627749348834,-0.049514020227069334,0.046532440715628724,-0.0024543743664387834,-0.08899997201909185
24,0.114314,0.204606,-0.020642614469507884,-0.01850789004995278,-0.2495409130255197,0.1481993569126013,0.04988091874995192,0.03624842579236389,0.03528052242125785,-0.0026388753018127117,-0.10882483066621308
25,0.216516,0.235541,0.027065774433921518,-0.04839377732899629,0.21846623557939798,-0.00547927397037344,-0.057550640433397,-0.032712420833522916,0.05440674027812489,-0.03559491550851672,-0.09581244679094776
26,0.049047,0.195363,0.017001447727208435,-0.020554805095812544,0.21904990992477621,-0.08623601224059861,-0.05821408273103008,-0.008657226930565386,0.040134735415643004,-0.025075757722002878,-0.13320257180534864
27,0.0,0.029403,0.022075653369939323,0.047282677142945186,-0.19709131598831578,-0.0052875223641954405,-0.04271765808274439,-0.024446419228279986,-0.039957238740616095,0.014927333594184163,-0.07759692975655759
28,0.002515,-0.022113,0.014931720927276081,-0.041851006622010925,-0.17603567028424497,-0.07965204387356588,-0.051858574451055635,-0.017071199602315325,0.030202553708190145,0.004020083351920222,-0.09573694198391643
29,0.002515,-0.017643,0.02686212292933301,-0.03664239326815888,-0.204831618079684,-0.07736739893040277,-0.03655957395655034,-0.023616393217056882,0.05614510427985481,-0.0007374588902493053,-0.11629154574178623
30,0.043701,0.032449,0.017526630250505645,-0.024756396250585042,-0.2416256359823393,-0.07797101340638583,0.0583908777234004,-0.03439225469050663,0.040108365917764205,0.004149051362426292,-0.08920403171656531
31,0.051902,0.263899,0.02369008019868322,-0.007753764053160865,0.2312263212563079,-0.08674659340311601,-0.04961299413216818,-0.02818128753230022,0.039314836576338746,-0.0611485769516654,0.06084436148860322
32,0.046408,0.17142,0.02163665120245549,-0.010568342121351609,-0.21647329060001577,0.12634466150590262,0.04587975465950376,-0.004080711352284926,0.03140903285070379,-0.01683614540634408,-0.11480965016524988
33,0.046408,0.17804,0.020307225844627762,-0.021774763968848237,-0.23637604910368656,0.14086767145419357,0.04186006290284761,-0.042218184354295536,0.04004225254083014,-0.00834609438627253,-0.12766192968919735
34,0.562964,0.355921,-0.021914821354846476,-0.006248557401661094,0.19775851150274973,0.14840754536513823,0.07284206103682545,-0.0023805481038568807,-0.0336898443341054,0.00599581511915827,-0.09822022238649598
35,0.046408,0.165231,0.023614044934652332,-0.03477415023048382,-0.24211718884468822,0.13384735465582634,0.034769988284794766,-0.03276359812463784,0.04336532579206896,-0.014884899907144929,-0.16530896703143474
36,0.002515,-0.020728,0.037661334566988704,-0.05109303488218218,-0.21517867060365028,-0.08295015390839186,-0.05013859196372309,-0.025080632031529826,0.0417117247689884,-0.00022794215773871127,-0.18586930459217024
37,0.051902,0.333972,0.03354416304940704,-0.030074788415464713,0.21929508548432675,-0.0827446166350276,-0.05289933294771716,-0.04392202119215157,0.041309474352796985,0.014129146234441113,0.13653423673866724
38,0.049047,0.182693,0.01726046494895561,-0.019851430159651705,0.21233717014146253,-0.08791011246999492,-0.060323791102315664,-0.04273161736516012,0.047521428571231,-0.006346120749148547,-0.12108674287839206
39,0.002515,-0.02713,0.02515350137499868,-0.007887916409721004,-0.2501035672629666,-0.08855992101470771,-0.04874120656279462,-0.026377905999794896,0.02184743361957182,-0.03860810890349205,-0.1476263119553199
40,0.024956,0.133906,0.016982090889777736,-0.010075542697599145,-0.19288183584472313,-0.08201050015949854,-0.06008880547574673,-0.03349031209126993,0.040556544054279026,0.007809251823244402,0.1586088840058017
41,0.091389,0.114089,0.03301998642985674,-0.018539717237413347,-0.27159686318033566,-0.0077018467284007,0.049320118634845415,0.04609188629775452,0.03970663456780181,-0.0025645850590083124,-0.1288902895246565
42,0.013329,0.01434,0.01428244540996583,-0.04210264964225426,-0.22007283133846015,-0.009055487560217982,-0.046799273097807806,-0.04876441861296772,0.03688219880081841,0.008705460277829218,-0.15006197067783467
43,0.057788,0.080443,0.032256996233351466,-0.007154974545906263,-0.22349097087750294,-0.008166777796598,0.06382166890682767,-0.01836563442530617,0.03387884339474666,-0.02482095269941801,-0.15561603140067112
44,0.013329,0.022416,0.02278984764320825,-0.06195758432059146,-0.20482921927106681,0.0033390062853154347,-0.053785066927292596,-0.023629957212103248,0.025812629522672922,-0.004266055581709385,-0.13318774500784583
45,0.002515,-0.024018,0.02234188374743936,-0.030048070752992227,-0.20532747312605187,-0.08125227786936849,-0.05536430526587517,-0.0324512046811137,0.028619133096960292,0.0010161896509074135,-0.08364943689091192
46,0.002515,-0.018657,0.02627207294235902,-0.022428487797719193,-0.21201805788768402,-0.07848541426820463,-0.05299220218630226,-0.029659432586818586,0.042126092246127705,-0.00431473734675489,-0.11701714290389593
47,0.087543,0.133618,0.012856313615118936,-0.03204918519092845,-0.2206014668743618,0.13900556299292713,-0.04942376233509421,-0.023967623084558836,0.03602555660697273,-0.015114763437077825,-0.14673318409420824
48,0.002515,-0.024696,0.025282662057755475,-0.03876042764139217,-0.20594169864216277,-0.08302980361740675,-0.06048924074571899,-0.026414509272434276,0.028336725747491527,0.004120736227238816,-0.09425016317505808
49,0.110432,0.063263,-0.032125563417339395,-0.07585488966369679,-0.22237501947827534,0.12558173952627869,-0.05194901544769262,-0.021893496547249477,-0.027715966322153365,-0.012880150270616916,-0.11241469350880161
50,0.226796,0.355784,0.023404080890740003,-0.05551682036356508,0.21440417790565025,-0.014783931430637403,-0.06980118967978474,-0.027506505157822946,0.027445755023424997,-0.026524106472506973,0.1325032700269113
51,0.002515,-0.031072,0.03178427763939345,-0.035364195287811505,-0.2229028071987058,-0.08895618323627154,-0.053325623547888654,-0.03676915610236716,0.02392272863249709,-0.013839385879575325,-0.13676459442645553
52,0.556469,0.283301,0.0251499224054605,-0.06756130406117428,0.22055621088678812,-0.013660689446147714,0.047640845105832906,0.0019890703705479893,0.0356806293557763,-0.02413994473051518,-0.09786865633563047
53,0.002515,-0.021508,0.021501577228182373,-0.047647034827659585,-0.19559249896118722,-0.08405686883907758,-0.05219148399150277,-0.008400203546991355,0.026503743234245727,-0.009392492219887172,-0.09809784865217026
54,0.013329,0.022886,0.018977933594819158,0.011652399871828825,-0.20223875999207747,-0.002202617045223396,-0.05695351137810691,-0.011694136976864524,0.049372461506458666,-0.0017438447450046396,-0.11344967897867746
55,0.013329,0.020894,0.021182318067879236,-0.03566986803991601,-0.17780479747826705,0.0006426504158173167,-0.06095829711116148,-0.02238525816940464,0.028649227145921722,-0.013201376951423708,-0.116675462220774
56,0.002515,-0.016757,0.014313297062852292,-0.020112332010820123,-0.21125762126194483,-0.07513682250946997,-0.049385931219824625,-0.020554664563763488,0.03578538496354872,0.005456588959164918,-0.09798140756182068
57,0.14543,0.164558,-0.023101292062376197,-0.05400852824777229,-0.2206162365873486,0.14365917498041644,0.05886774234350088,0.03653905239567058,-0.04641509815050995,-0.010825790397245948,-0.12067266020935799
58,0.002515,-0.017671,0.028123853599894236,-0.04447264651761904,-0.21361547576588624,-0.0696224702164847,-0.07271755377119041,-0.009000572524886664,0.028600634473646566,0.002151534612979712,-0.07549838358996463
59,0.002515,-0.020835,0.01514731877256449,-0.03881232223992247,-0.2214561626572679,-0.07462363269819493,-0.049445543636960555,-0.02836864002895253,0.03942645911140926,-0.003609728934434361,-0.11827166614341192
60,0.060156,0.059651,0.029676947894051994,-0.05333861488725373,-0.2391709851467752,-0.00039982751415492854,-0.05783229522475085,0.03969897089501047,0.032532976411220896,-0.013617137515841907,-0.10485899906854942
61,0.057788,0.06266,0.02773544888518647,-0.05220081176769921,-0.22368675605641772,-0.007470817498539686,0.04555480797525793,-0.03674411299541337,0.019596923904991844,0.031172981637854286,-0.10504510104789251
62,0.013329,0.020175,0.02117958398108582,-0.04961672730811981,-0.2134240677630124,-0.007069245915321924,-0.04966125146998125,-0.02909222542437461,0.03732791639995715,-0.008686442317576221,-0.12574634367628187
63,0.013329,0.01473,0.013298952166813335,-0.053152930915340034,-0.23235312731902147,-0.011403182327824472,-0.05159952144475018,-0.024050325054241782,0.03929679929877833,-0.047739393860803406,-0.09464946925206896
64,0.013329,0.020663,0.028920181435342578,-0.025741120087967417,-0.21524611288325343,-0.007036173920808886,-0.04960774550196639,-0.030869966571550077,0.03990840773610512,-0.009764061079646908,-0.13731678443540946
65,0.043701,0.019721,0.018815303194974892,-0.0126329202665701,-0.19552925574155489,-0.07794127181799954,0.039592494141882484,-0.03816019958800391,0.045095963512263595,0.008493690901543928,-0.12115877938349787
66,0.002515,-0.020236,0.027634884342761713,-0.04692332829072529,-0.20050693679342566,-0.08058388313519829,-0.043426050112489095,-0.03553888979937452,0.05968220666712147,-0.004745996480693333,-0.11087043145417531
67,0.002239,-0.027906,0.01774973508020125,-0.012452834976265878,-0.20078877698889155,-0.07867746505322068,-0.044466294417852825,-0.027111385862934198,0.031683902594379,-0.0070936433537806595,-0.11650468225134662
68,0.057788,0.068497,0.02787140276127536,-0.02637413757867765,-0.19429167711767897,0.0007096345933602557,0.04554613766946315,-0.02106942007704167,0.027581873200379317,0.01934031440067378,-0.10255507023596629
69,0.098947,0.309013,0.037383135725318935,0.02303504859183349,0.19761886931677117,-0.07780644762960363,-0.07470821464111546,-0.019530102920884425,0.046589669671145216,0.017667707783265214,0.11060538928371477
70,0.216516,0.234611,0.02845777888554388,-0.04603500780859474,0.21235766239897474,0.00178810243544919,-0.05301290452810948,-0.02694654650351571,0.04188112375909114,-0.009167527385643057,-0.11572646025064554
71,0.013329,0.013897,0.022582263421714568,-0.03316884868200391,-0.2506635314038994,-0.01999497355156589,-0.048325604880308175,-0.04047382956687648,0.05723477495757826,0.00771568622208046,-0.14187655635044952
72,0.013329,0.014921,0.023908799695371484,-0.04539703210869231,-0.21958222567821062,-0.011867529253193208,-0.06637081821457576,-0.04839719145297881,0.03959318236948321,0.00016439311005271608,-0.13890083994103633
73,0.002515,-0.024502,0.024080394519724223,-0.02292041588486151,-0.21632996131510907,-0.08005800530112071,-0.03740304151531412,-0.029301494135735275,0.0324285074362812,-0.015128627860261382,-0.134656990119349
74,0.013329,0.018616,0.0308291153024045,-0.02935610504542639,-0.22714762086256268,-0.004901992109975567,-0.05257410999930274,-0.036602813629525506,0.02620512439457142,-0.008472334068836629,-0.11792096094130848
75,0.005032,0.046838,0.028655045963188734,0.06975653405386781,-0.21370659722117338,-0.07073904794985282,-0.06832044327536196,-0.04597164293479573,0.034663475460399676,-0.008291735192434379,-0.13551340217832056
76,0.013329,0.012097,0.02312890241261136,-0.02547000459856487,-0.24166721260961424,-0.01420275642657307,-0.048796207237620876,-0.06476946686964452,0.03919116189666208,0.008564599981332403,-0.138413381147626
77,0.013329,0.019192,0.021084020997099075,-0.05143327291289239,-0.2247295263768846,-0.0008934298365867297,-0.055026879896498286,-0.0354871320610428,0.04110783560992236,-0.00042370695732889713,-0.07942821183994263
78,0.002515,-0.023242,0.034611498544953614,-0.020786348826805797,-0.19443649662741985,-0.07000172379161046,-0.09115626775817867,-0.042725953909836745,0.016765890832257865,0.0013997256592741978,-0.13277530369054882
79,0.002515,-0.024258,0.028767023230563973,-0.021575856763535576,-0.21248359636034644,-0.08540524644915617,-0.0638417297214171,-0.027177678825411982,0.03951089410711588,0.015340381563143813,-0.1728007251688817
80,0.161395,0.123668,0.017385900511743876,-0.014340876553452534,-0.21667531431536027,0.13826876848501138,-0.043391531801380084,-0.023312849266913217,0.046984174174037996,0.0029764580673574217,-0.12191267221133303
81,0.024956,0.098436,0.015331618068866388,-0.05977957087541979,-0.2180140327758562,-0.08878426900039045,-0.06190518137662741,-0.03284256706461389,0.05969458516325992,-0.01237516963319065,0.12610852176081042
82,0.013329,0.015783,0.04077202351664036,-0.04097542829051407,-0.22553350869721403,-0.014090269157182004,-0.05963967479357408,-0.030327377282616957,0.03984984295677923,-0.03127389845572863,-0.12236366291346361
83,0.013329,0.017999,0.016108571756317695,-0.04675206197726063,-0.22724455337530425,-0.005246584559242178,-0.06516803802920974,-0.006549441320968697,0.03938424475888585,0.009459879167487048,-0.09253736271799887
84,0.060156,0.069341,0.01843102518557877,-0.024297086277707537,-0.23267944021624012,-0.007132795066695466,-0.05800246990814276,0.05521679620482747,0.0279612365270545,0.020148752405276613,-0.08957223744023574
85,0.002515,-0.017208,0.026730073425173986,0.003526269652381185,-0.18438256844864825,-0.07326846731432783,-0.0510609437454901,-0.019311331362893477,0.006973734989432853,0.00016523874102825225,-0.07475435406174047
86,0.002515,-0.024741,0.013765593896288206,-0.004891345029487635,-0.19115904907245523,-0.0841203038663563,-0.04222900325877993,-0.028757280050790462,0.039253259470992306,0.007829194098777383,-0.09545659498312808
87,0.675656,0.498345,0.045112805602083854,-0.04071731248649592,0.23217214170952824,0.1512757153367446,-0.06484363731119382,-0.04474840838397796,0.060976614828696644,-0.005151683020402876,0.1198104134736851
88,0.131423,0.216465,0.030620996127009015,-0.012536373228586372,-0.23230687457493562,0.1467765174855721,0.05273715045584616,0.020052949504930848,0.023306112832418624,0.019507882126322908,-0.11671701352562118
89,0.013329,0.011293,0.01799090452604092,-0.039954339007166884,-0.21365584450185157,-0.015952580674995928,-0.0357648376377154,-0.04659331765821493,0.009200631032526243,-0.0015090339513791095,-0.1520172246372513
90,0.002515,-0.016278,0.027604676956993153,-0.08313371197692446,-0.22150064611063452,-0.06807678143436453,-0.061017336897699656,-0.012678544088162986,0.04014977583716026,-0.02336376110711035,-0.14196654830011213
91,0.002515,-0.019287,0.024749605978882854,-0.05613617647436612,-0.18047774733120714,-0.07742828956271824,-0.04702170483940899,-0.02587916994481458,0.04276514647349094,0.007974504848092322,-0.105038554199605
92,0.002515,-0.02431,0.02428379076461508,-0.029445082369350832,-0.2178715564536705,-0.07926610124661522,-0.06426576084636554,-0.021451841764096452,0.030291991226364084,-0.01317689282053023,-0.10638908065536928
93,0.227828,0.240412,0.034225693411289115,0.0148879392919753,0.20299054094318725,-0.009600206246775315,-0.058151164416649935,-0.04849673110636574,0.06158794295657266,0.01827565549695605,-0.0892627268353354
94,0.087543,0.135611,0.017382201879729487,-0.02471401694512224,-0.22689559624650485,0.1412740984608481,-0.05728393600989074,-0.029688288779026576,0.048885653919262105,-0.009146284712834248,-0.12545587393052615
95,0.091389,0.105258,0.013262570614934924,-0.01403745729518459,-0.22780707948184573,-0.007910391639773716,0.0496573178534499,0.04005298869601226,0.0390011763778043,-0.02922787508304992,-0.1291484057016751
96,0.060156,0.04681,0.02568308833599768,-0.03140647280267515,-0.22141846640070909,-0.00690042984491958,-0.0533349679163213,0.029103046551108916,0.04264996652934379,-0.020848253960349804,-0.10733226783171028
97,0.013329,0.021821,0.02370966547922385,-0.056717014020781525,-0.20236234144478776,0.001706668012628416,-0.06327484230362888,-0.024935432439914175,0.03321193184936589,0.0035526429076533153,-0.13365844847370664
98,0.095576,0.177096,0.02415814092833592,-0.0573887790512019,-0.2399306905666253,0.1306411642497405,-0.06191453380010438,0.05525232959030631,0.05832463302550534,-0.012767965797891318,-0.13794712736893433
99,0.0,0.159886,-0.018923669332028895,-0.028952348260267536,0.20548119427386644,-0.0884935891485819,-0.0666879445414719,-0.03485541851268404,0.038993549453769816,0.004056894665420502,-0.10766018385168778
100,0.002515,-0.026338,0.025350260957840487,-0.011122733288216178,-0.21670517835673317,-0.08423331596912413,-0.050884295134456,-0.0365576865226874,0.034938421917813565,-0.039826723350255507,-0.10426418543703901
101,0.0,-0.051197,-0.03046786879636339,-0.015260472046931229,-0.19884438280116357,-0.07681455736113843,-0.05975929105780656,-0.009623580285603305,0.02326476851893654,-0.029032384270416135,-0.08841255319023304
102,0.013329,0.014297,0.026715073253427313,-0.04030741205897313,-0.23205470347989324,-0.013483876940940907,-0.05285464827670443,-0.04667143718041866,0.02352987416323608,-0.004672682262714684,-0.08038667424229955
103,0.002515,-0.028585,0.028679337220940255,-0.03597079475975392,-0.2143011785680124,-0.08639804555899126,-0.05768560838329153,-0.030612514756001054,0.03125030973957306,-0.009560553794964089,-0.10441406701540101
104,0.164743,0.221619,-0.021949969512737404,0.04244480323359515,-0.20526080889437023,0.13167181538693778,0.05452051364843145,0.017408274254678287,0.0434619570541637,0.0023800918044197933,-0.11420823104256507
105,0.002515,-0.029547,0.021446441525213696,-0.048060900630457,-0.21192749553610696,-0.08205558139834136,-0.07228059097326688,-0.03647640873132501,0.031004763034166393,0.0041655894146023715,-0.13101209772095934
106,0.013329,0.016869,0.029832417943894036,-0.04044669079636149,-0.22108734481019102,-0.012964198737762795,-0.043901175465713795,-0.03832225212662088,0.03453368415092794,0.010867637629014456,-0.11881556877080537
107,0.091389,0.099444,0.035363354569192776,-0.013217862023351718,-0.1997691384353111,0.0035782239504728486,0.0543102948057327,0.020394095307111896,0.029137671616905846,-0.012794079689148965,-0.15520543245138368
108,0.013329,0.016724,0.023926627739048776,-0.02523766472511272,-0.22467155273813108,-0.010155406427586722,-0.05465210653203671,-0.028882862705435785,0.027085410766660493,0.01682871202920106,-0.08548990300446017
109,0.002515,-0.022909,0.017345533242444703,-0.05216878884277478,-0.24342708745794717,-0.08509960918061414,-0.05428511014587143,-0.016944822034834342,0.05534775100104873,-0.03299972688732603,-0.11202080041998894
110,0.0,-0.047406,-0.023863406460574405,-0.04124448756747374,-0.18753054752771844,-0.08141894721996841,-0.044415561444322973,-0.02664339112979587,0.021346797564596093,-0.011204394930812442,-0.12616046271624273
111,0.002515,-0.024773,0.02634048181828065,-0.03778926177494492,-0.2363987404335341,-0.08001941901643447,-0.07297902386461363,-0.03279763734803393,0.05148766749876865,-0.04134689936471354,-0.13537927378182774
112,0.013329,0.014944,0.02471959744617816,-0.02217354051835237,-0.22267412523980945,-0.010451847682485098,-0.06116064382184115,-0.03422665172646846,0.03740676495659157,0.005167334043357823,-0.17717700734446443
113,0.571123,0.426779,0.020575083558572675,-0.043960427842728404,0.2268886045232042,0.006881917040180505,0.06929179440334662,-0.011970529688922812,0.058786368007823574,0.02135516996036266,0.10596664738108434
114,0.29075,0.21179,-0.03281275185533746,-0.05050717039814189,-0.231080271192216,0.00196779305091329,0.04964966952235749,0.03831070978075618,0.036981227970199995,-0.024776397917961476,0.1343588304835785
115,0.049047,0.20739,0.02587560986695335,-0.03579205450781741,0.23694547937772575,-0.08649842260850577,-0.06854608985346168,-0.03164397171915092,0.028235259626607223,-0.0327999956364236,-0.11674783013010254
116,0.002515,-0.019215,0.018637001997697293,-0.04575984504463744,-0.24770359824252453,-0.07532133435399352,-0.057935397297565513,-0.010525566037877371,0.046776986555777965,-0.004828963456136929,-0.10236903727775197
117,0.005059,-0.005372,-0.02531445314812563,-0.011362090217669922,-0.20729426083493432,-0.010918618925953737,-0.035428008213028266,-0.02716203006656074,0.02746418494203486,-0.0077222932011693085,-0.13533523127594252
118,0.049047,0.193686,0.027323669257031866,0.01639645166615293,0.21817070278649792,-0.08933806213284713,-0.04834040737816287,-0.04422250558754711,0.04445580156995166,0.01002261693606801,-0.1490095012433344
119,0.089523,0.1906,-0.030377340263236238,-0.06897375126395575,-0.2737330615470205,0.13625967956340929,0.042431294360744824,0.04933584706603324,0.0372773507654396,-0.009052414597523858,-0.10393919593384389
120,0.087543,0.128979,0.026137353537089784,-0.05554114183244796,-0.22799953814700805,0.13513038916178252,-0.05297878778442942,-0.01788441796476838,0.020633480340053075,-0.033978656237974254,-0.09316875437226695
121,0.013329,0.019272,0.02807989746899165,-0.052246066756757734,-0.21031569428443966,-0.018797655547148816,-0.04023023686037994,-0.01563859578100812,0.03945920677389966,0.018621860903287258,-0.15537691634198897
122,0.002515,-0.024321,0.02865148591431124,-0.05491760689487987,-0.22365911951643813,-0.08127949862492083,-0.06504918871465333,-0.02482623858750101,0.034529266585940376,-0.0018369176255605857,-0.13067618290396535
123,0.330668,0.271965,0.028585561760470425,-0.043377470598889405,-0.2317421017912305,0.12846402126325585,0.05033974136556712,-0.05407890791507462,0.03724122133279988,-0.033100211830614054,0.09697687824864681
124,0.356643,0.272211,0.024567279265775132,0.0337996954382294,0.2238137235095052,-0.014911118945752557,-0.04714041903318896,-0.0059502258237060564,0.016452440890605755,-0.0562282835488656,-0.16244539558235538
125,0.114314,0.210393,-0.026341496861461103,-0.0484324117676507,-0.22115911275442682,0.15756458148741764,0.03835352253876593,0.027180068237581085,0.023043459542449598,0.02265695365248976,-0.10159866592779607
126,0.216516,0.212095,0.034932033712913764,-0.04427858116800495,0.18593230958155701,0.001509752998808793,-0.047613845458959685,-0.01957215747297623,0.03290859402777475,-0.02885212417211447,-0.08162053782850844
127,0.013329,0.017774,0.026736039733297984,-0.017078379350729454,-0.2480288569578139,-0.0073837656981515795,-0.06494236757367147,-0.03111516438702222,0.04230564755310067,-0.010570373383278975,-0.08717741855599552
128,0.216516,0.238241,0.030605887950236027,-0.011135554495726433,0.219404636434848,-0.01615098315761004,-0.05611950643622233,-0.02149629647313695,0.06271950476976158,-0.002385273986992717,-0.0750032002588746
129,0.013329,0.014436,0.021841412246573527,-0.011039622408944539,-0.2207607004946864,-0.010683467412230321,-0.06486857846676042,-0.0346772073736828,0.029334894826166434,-0.01324233941774686,-0.12191502005865411
130,0.049047,0.179884,0.029829025054133533,-0.005207871719955468,0.2034759419881157,-0.09413553834527043,-0.06982779020958235,0.0052874178514875315,0.05224775979198757,-0.02043734255235557,-0.06651030374691085
131,0.013329,0.018118,0.023823598302638648,-0.07855104187141075,-0.2047333274008144,-0.0022834555029551257,-0.061191509901467996,-0.02785640857449996,0.032316948288008046,-0.02799027499003449,-0.07970019126473495
132,0.013329,0.010621,0.01649648806007223,-0.027451161229564123,-0.2426949061894415,-0.01432722116892899,-0.05565490722989722,-0.015191930371791323,0.02768192648900195,-0.008195983272066587,-0.17408451945411055
133,0.013329,0.017383,0.028637044010819047,-0.07943407320853166,-0.23920952086943859,-0.01383184243490449,-0.039491331141030366,-0.021378390601714044,0.04148321472710694,-0.054499589275532674,-0.08912560170968273
134,0.110432,0.065811,-0.04378546522622551,-0.07728757289250407,-0.209413112499508,0.14550427415130376,-0.05173582184323224,-0.03925243552351289,-0.033047497331999215,-0.007985478756595063,-0.13676292543703286
135,0.002515,-0.023048,0.03412045034559328,-0.013685559958241814,-0.22742951509754342,-0.08405778941368179,-0.052691258121080005,-0.016660966944175577,0.03330359220350862,-0.01118062134803619,-0.09272381784614142
136,0.087543,0.137477,0.010935311452541719,-0.05492793050909227,-0.23255949686019273,0.14272190606289528,-0.049764680011766746,-0.033345423537965185,0.05618442884131705,-0.01610552679883179,-0.06310061758469651
137,0.014218,0.050389,0.023645252065782545,-0.0025034279877094484,-0.25096342963224927,-0.007297481514552582,-0.0497948569717417,-0.017316319282268993,0.026263750598223636,0.032229382089875164,-0.0893521536790748
138,0.675656,0.495351,0.03830281172186361,-0.004161003589667766,0.23437873291479366,0.1491500375040068,-0.05227700527279583,-0.03942939014358579,0.0382861948884214,-0.005729224739120058,0.11657868672615629
139,0.662462,0.386174,0.02239237436833754,-0.0335337279628347,0.23083002947440096,0.16336190701922718,-0.038042432895724905,-0.012335673061529256,0.030041037157849403,-0.029984687591402406,-0.11147972476525943
140,0.013329,0.026889,0.03703872240272568,-0.03610542758106113,-0.19158254902282773,-0.0003059155056966352,-0.044690462676222883,-0.04149285056456991,0.060672456135133494,-0.018364640648825953,-0.13709740036133147
141,0.013329,0.022314,0.032775365820152245,-0.022984127937131997,-0.21806133843726724,-0.0038968401391049584,-0.055746727914860836,-0.02870217559578437,0.03794380250851006,-0.0034066794714160127,-0.11847417395354612
142,0.005059,-0.00699,-0.024341399999130195,-0.049330467781445723,-0.21245488494713413,-0.008769657296072033,-0.05734032261187887,-0.01513578588368652,0.03435428719106883,0.015360561413881684,-0.13278011856019017
143,0.002515,-0.028231,0.0036488774259629676,-0.0330221672977456,-0.21588333159124357,-0.0810656207178438,-0.054954213110175856,-0.03706159868874522,0.03148603790097971,-0.03435077827388632,-0.09890118366472546
144,0.110432,0.069119,-0.015040684657097448,-0.046376380684334965,-0.22547199238362897,0.11555873836868132,-0.07055155394191531,-0.03873247012483288,-0.02409481689602833,-0.017642833750651954,-0.13380479305315549
145,0.0,-0.050563,-0.033239607289844805,-0.05801872813467409,-0.22453315028924162,-0.07373951085245353,-0.05227261961558828,-0.020505662559921773,0.03110654291039002,-0.04225010946113674,-0.08517341599060708
146,0.002515,-0.02717,0.012366591210771844,-0.042435602672881496,-0.24197561763269637,-0.08691806733817378,-0.04260519011681054,-0.02506384122590543,0.03257620582390423,-0.004648770015297668,-0.11469623772144769
147,0.013329,0.022297,0.024394607509783416,-0.04980493813823899,-0.20391955053011762,-0.000689764664401435,-0.05677318638826951,-0.025427574529260186,0.0336142590542031,0.008195491122751315,-0.08865477848692543
148,0.013329,0.020237,0.028468741305822005,-0.014057444745242073,-0.21404050990773654,-0.006476083681607353,-0.053295854147761904,-0.017441385926642357,0.03210523759962579,0.0051685924351479685,-0.15644385751142356
149,0.662462,0.349075,0.02332341960708395,-0.06152785421585566,0.2087052417460951,0.14390481843852918,-0.05615165107097672,-0.014437343813545753,0.043656691599215564,0.004985034353774209,-0.13753578570167518
150,0.002515,-0.025884,0.01792313692400514,-0.015470248649610122,-0.2001605341869877,-0.08492931963292757,-0.0648567962588144,-0.038428575717348264,0.04244464241950897,-0.032566664944117765,-0.11269369478500717
151,0.002515,-0.011085,0.03901619105037582,-0.03849317239533921,-0.1914001971766953,-0.07344375772742091,-0.04735334225755002,-0.015825850446302133,0.05203910708731164,0.024077499912927278,-0.09416504460926992
152,0.216516,0.212159,0.031565945809280606,-0.05377719779226381,0.19500396063310343,-0.017794024188934224,-0.05139156877689406,-0.014493192946414305,0.042420076727296516,-0.002735443218124797,-0.14247896378210653
153,0.087543,0.137913,0.01959981646146143,-0.009020290080876943,-0.20395659471484306,0.1392603458987064,-0.04682932326524652,-0.01903615586531059,0.02768156056952598,-0.002593490556449853,-0.13108061554100015
154,0.161395,0.166111,0.022917797555860694,0.007127339445165032,-0.21546307051612176,0.164781703923306,-0.048030283196289394,-0.02930537850112292,0.030030903943290537,0.012173950369533138,-0.1374839785632169
155,0.002515,-0.022984,0.024253239740233547,0.009031237221380165,-0.21435457487349377,-0.07823725433906221,-0.04897773858760528,-0.04859969843924954,0.03867554465242416,-0.02653285055677074,-0.1311079869403861
156,0.216516,0.242428,0.04467333129367455,-0.03661934802331122,0.22081838364685297,-0.010533180591044689,-0.0525141701663123,-0.02060124414329316,0.05724984760218138,0.011032286166103987,-0.13517395742612917
157,0.002515,-0.024638,0.020174511897461223,-0.030640165048753554,-0.20942325945278856,-0.07793793601535207,-0.05776559767426317,-0.0316371549565062,0.037824717436254394,-0.008566113201431483,-0.1599174287408905
158,0.005032,0.024121,0.046632113067296074,0.05429823287098871,-0.22299316224444127,-0.09863083400327927,-0.050859017386011306,-0.03787075597831293,0.04223088623886055,-0.019964578519885375,-0.1380116409157779
159,0.002515,-0.02304,0.03754396036178561,-0.02688172090031195,-0.21086382037945461,-0.08026031404237642,-0.06543745192674336,-0.026561787532251368,0.03369957441282639,-0.021550222617836158,-0.10436144982656345
160,0.002515,-0.020218,0.017273157709060873,-0.01816579948634515,-0.1883566417193419,-0.08023892603172128,-0.043586474646809946,-0.014410077678158249,0.042526898151909034,-0.008525799922891708,-0.10607485731344184
161,0.002515,-0.020093,0.02379811722668553,-0.023392670879330495,-0.19712127265352208,-0.078756902263568,-0.054088942744162115,-0.03031999340982565,0.0503701146053666,0.008454273963441795,-0.124800520140737
162,0.005059,-0.006296,-0.020923971791571,-0.04766981864469036,-0.24406709835099638,-0.011446914717075865,-0.04490488751253125,-0.012074588174589876,0.030770935841168724,-0.06649614127543621,-0.12644463158365046
163,0.571123,0.39849,0.021751018642156835,-0.03401109890489433,0.20353506618581058,-0.0025385842350971882,0.06901966999883849,-0.026713789403026263,0.030631472134653656,0.005720757961141577,0.10976215497003848
164,0.013329,0.017556,0.01191870270703995,-0.021687179041162224,-0.22442452418208886,-0.006030266944237245,-0.046654199458596037,-0.027934613109779533,0.03909677488581453,-0.01491296669145507,-0.10562132867289416
165,0.002515,-0.022581,0.01805627221658742,-0.036534135879723775,-0.20259115094049038,-0.07932538659667425,-0.056933429931160705,-0.015684323726509748,0.04254127693954704,0.005102412456024801,-0.09214026007517019
166,0.60897,0.455766,-0.033916921082048974,-0.027624080465897843,0.2196682211167595,0.16248848387052586,-0.04172785078452011,-0.04225646141071999,0.03853048376155203,0.02454357344938436,0.1118644905463605
167,0.087543,0.138445,0.02400839105507778,-0.04768846246870467,-0.22159321930861828,0.14206756061432724,-0.04756856492033017,-0.03487364282997827,0.051824528038262596,-0.019205876663477763,-0.11418964248240222
168,0.555339,0.309393,0.023599568957803584,0.08314224250747647,-0.22932850315218184,-0.006497827553758374,0.0673283267790235,-0.027833450263807128,0.04525757801496358,-0.002020247442163203,0.1438936166408638
169,0.057788,0.073083,0.03366451638456436,-0.052227445067269104,-0.2549379360165054,-0.007982096626173016,0.05608857532089127,-0.031950809853324824,0.03523595412974401,0.008473259663496536,-0.1397759467372169
170,0.002515,-0.027598,0.029327385397067,-0.030177083062641812,-0.2035163779672316,-0.08898683245966102,-0.06466283608202965,-0.03225177325394297,0.0383468236785009,0.022981279665126746,-0.13051989020162044
171,0.002515,-0.024653,0.024052149995352413,-0.034063455254188156,-0.21875176356634973,-0.08336804856264818,-0.04697705678320928,-0.02362549172349173,0.013128270477518588,0.026690769300900346,-0.0954078318988687
172,0.0,0.120046,-0.03338666377485671,-0.04280790795981016,0.17332122598310087,-0.08332171482015106,-0.06538309196958483,-0.007514240311651295,0.04836096457639031,-0.012282063030664186,-0.09672645652449176
173,0.013329,0.024609,0.02793677163656464,-0.0023516105767862104,-0.21457033771293121,-0.001569245285383321,-0.046548449681968966,-0.03158423860385976,0.04215917731894414,-0.00673178132681823,-0.07337383236796394
174,0.060156,0.048348,0.023901791012697318,-0.04123128438497374,-0.2493867844746279,-0.013182204861448334,-0.043800937732340756,0.029951597110642533,0.034044635469648456,-0.01268323032661276,-0.09067810544614588
175,0.0,-0.093938,-0.03046155607873286,-0.02344356620398473,-0.22883475515444512,-0.08127884784176569,-0.0594819931740156,-0.03221376559095212,-0.041009109385015285,0.017748975231980532,-0.0867055674898978
176,0.002515,-0.016683,0.01012304185326037,-0.006168157620325563,-0.18798037881618915,-0.07227788142558099,-0.04921024965360643,-0.01774316445686732,0.02728590419539356,0.02583568155702413,-0.09816268548544464
177,0.087543,0.1435,0.02347830373938524,-0.02257374387931449,-0.22526461255670024,0.14653869942522363,-0.045723068313087034,-0.012116099559940323,0.03673504751046049,-0.0029673715849874013,-0.13114953952580025
178,0.024956,0.085954,0.011679895376384817,-0.029392321565232565,-0.2080641073889888,-0.07642631830765852,-0.04640519105167246,-0.029590224344981122,0.03446635517747006,-0.027625545437510876,0.10883981653412331
179,0.013329,0.015328,0.015261501992315425,-0.07370388768379375,-0.2211860694886118,-0.0038819416170947332,-0.056856982652399767,-0.04377727916738113,0.03676919444255287,-0.006262351222726794,-0.11632847519579109
180,0.254494,0.159535,-0.0323714325635979,0.015131384866167892,-0.24043922536759726,0.1386281155115413,0.043220952555817906,0.015249593923720436,-0.021037945733359962,-0.008854125755522307,-0.10737085093387183
181,0.013329,0.017896,0.019210198324545156,-0.0064951398220611896,-0.21572713611072034,-0.0063819227933107235,-0.07731118957503082,-0.044133504196926084,0.04284386025868654,0.007425718604342653,-0.11270243291263492
182,0.013329,0.021922,0.03212210481233888,-0.004006299299708425,-0.20591249995409572,-0.003930230295978428,-0.05719995396930791,-0.0432541792556042,0.05179692042912594,-0.010182444967205842,-0.13634365324715625
183,0.571123,0.455977,0.04431052151696001,-0.03580504230576163,0.24935383582028717,-0.011561241156564846,0.05413880652200352,-0.032861141200427366,0.030313610333636158,0.008210290498104187,0.13498106137589946
184,0.662462,0.384007,0.029416340527247817,-0.013992134785535746,0.2374815368351863,0.15024714306967812,-0.04992453348418879,-0.038442201994443766,0.05408346593492451,-0.03619870372459218,-0.07544076045614174
185,0.013329,0.01869,0.027162274445618115,-0.024645163244428416,-0.21459573512786861,-0.0050282133613091555,-0.06603256850097294,-0.05425409266032194,0.0573501802151438,0.007407848387629426,-0.1373073446541355
186,0.483157,0.230377,0.018868782541379362,-0.018698881648243723,0.18722271821074607,-0.07741210171267517,0.06488579818884299,0.0046362604852795775,0.0387051136830563,-0.00869160101951148,-0.12339525652811074
187,0.013329,0.018287,0.028299834014304345,-0.017447391051640355,-0.20127296590301447,-0.008225505213641888,-0.038144641285967035,-0.0325291773242739,0.023076083773162524,-0.006183497789083671,-0.10317910375658926
188,0.087543,0.13595,0.031831730610683055,-0.027328346931347138,-0.2228227990843788,0.13826194431252692,-0.04191631696471645,-0.03823635635691963,0.03521788809904158,-7.775393468658617e-05,-0.12388561894131742
189,0.005032,0.05461,0.0220713174579979,0.08057579663084666,-0.20216920997201263,-0.08567957740473607,-0.050713403706924454,-0.022719026961474206,0.03515471039477252,0.012624668139938495,-0.07843856041926862
190,0.025054,0.012626,-0.025594266805814475,-0.035380760234643455,-0.19338406878743594,-0.00975840475052156,-0.03470375309950958,0.01612829702623324,0.05235576496356038,-0.016742269799287137,-0.1650062206403863
191,0.110432,0.05595,-0.027617257762315214,-0.03300411769742465,-0.2080996831148465,0.1355304525915609,-0.050543332706935465,-0.04347286981345403,-0.05026305555481908,-0.00402023469200409,-0.14365196092752733
192,0.013329,0.015427,0.018431233140035853,-0.0022712898621888742,-0.21649472741238318,-0.015387916648889378,-0.055424205185122075,-0.021635947280061994,0.023052842428866505,0.0030763623004413368,-0.12972298592099035
193,0.043701,0.03633,0.02489696106099678,-0.040434814559362105,-0.2122947575567108,-0.07890709632450893,0.055829184869229116,-0.011503636399518234,0.04878478497818833,0.00937732928867364,-0.0983691183941168
194,0.672938,0.35803,0.01604779154721657,-0.044396379376495744,0.2552914529980782,-0.014245332344629744,0.0566424069837776,0.03883848496083452,0.0333106739772361,-0.047168731480614644,-0.10317890699705824
195,0.216516,0.251894,0.027841838673010762,-0.0016995183713425929,0.23085244051375134,0.0035556097954153993,-0.06238165058478005,-0.07029980481501577,0.022254310714842258,0.02454551655208239,-0.11309776344224955
196,0.013329,0.019924,0.025944011504426125,-0.016193517038252548,-0.20727763523913936,-0.011025479594728767,-0.0588226899677209,-0.00545692391316317,0.03013915997008757,0.01395946430323605,-0.13797455805764214
197,0.002515,-0.028801,0.033496083354485146,-0.020847271437483703,-0.226446206955734,-0.08915857665187105,-0.06534290771750634,-0.03277407973720999,0.027445399644628346,0.0035590918537464753,-0.1022463012300962
198,0.755812,0.475232,0.04554760054375043,-0.04342861981291409,0.23680450752398013,0.1329522645033681,0.0598317289157556,0.0515860468510262,0.0406755273965362,-0.012583357578270895,-0.13692587998254677
199,0.002515,-0.018309,0.023565512163030558,-0.004856127586850065,-0.19610001092978868,-0.07880055096438644,-0.053102624324927655,-0.034114111290360544,0.045961478129587056,0.01909434096613956,-0.1196340517342803
200,0.002515,-0.020496,0.011968999026862395,-0.051841124300688886,-0.23264180224978376,-0.07387524145957011,-0.048666854196055355,-0.030419376210667915,0.03969741104869425,-0.010621978286645427,-0.08968284933285023
201,0.013329,0.020072,0.02049760325397402,-0.024063780507482833,-0.1949560701062661,-0.0037204919249857514,-0.061241406022394855,-0.03138737656524745,0.03557483423584744,0.009915400249831102,-0.11193137098129308
202,0.013329,0.014801,0.02709295601556412,-0.035074072987920986,-0.23754739920041773,-0.016461217763068595,-0.0496878528147428,-0.029795314123448515,0.05150086372621866,-0.022339897936678864,-0.11329951040226907
203,0.776847,0.392834,-0.01928398084181349,-0.043249132474735524,0.22178125110108196,0.14407429572100322,0.05773802985479588,0.028240525264299685,-0.03371439894562456,-0.015901043902361207,-0.10240687189206132
204,0.121818,0.184027,0.03483426518740753,-0.04767098944249104,-0.23753145981510693,0.11840085121879472,-0.05900270481464149,0.04696972948344696,0.04138180934680109,0.02313601123012355,-0.12438188834365822
205,0.046408,0.165174,0.027459494527545827,-0.0371682063365404,-0.2073276235138735,0.13835266466001908,0.027692135445411624,-0.0225906620855837,0.02806984468398014,-0.0009183571283657929,-0.1051670283743637
206,0.34456,0.229551,-0.025397101966317195,-0.04127339540209685,0.2137638899531608,0.004161001146641682,-0.06815267635156977,0.01847847003913193,0.027331123462684865,-0.012547536880883758,-0.0876477635327893
207,0.493398,0.281404,0.0230617662921472,-0.03477315691284979,-0.2095052139748088,0.13709617821186762,-0.044417059311593246,-0.015739392400805675,0.03279354505691932,-0.0077399198833144785,0.14638376523667
208,0.002515,-0.022978,0.0153287957773442,0.00026405195819071824,-0.20915024792235293,-0.08196189512688579,-0.054031040940556455,-0.0185383309294512,0.04105895771390744,-0.005616151607776599,-0.10482141012589512
209,0.002515,-0.024504,0.02705999073023249,-0.0702620898771285,-0.22083687174020775,-0.08360424937678532,-0.05068745693020043,-0.028864460333263457,0.02621854352050265,0.00345758822116938,-0.11107135837297732
210,0.049047,0.172447,0.03369584188049185,-0.06092902992789036,0.20380099794370798,-0.0909266295891581,-0.07051196701764584,-0.059687259142871034,0.03017169987325922,0.03705019291876103,-0.1311809161325722
211,0.013329,0.016195,0.024366485650078686,-0.032358395300088307,-0.22329324390338007,-0.014421471900326116,-0.046550752824286994,-0.01212942241553558,0.03676249972941195,0.008379342638309573,-0.1280103953759486
212,0.662462,0.35166,0.03241561871287691,-0.031949580104286175,0.21211187987156788,0.14849459042765098,-0.06590476140436909,-0.023313095082588914,0.028183788349660056,-0.016284551953808693,-0.12564093817278654
213,0.057788,0.073367,0.01720493750585003,-0.04425078154421018,-0.20618237913656587,-0.005660686776402595,0.05301071774125123,-0.02534326284991933,0.0373663977282406,0.015579496232741366,-0.0665871783061708
214,0.216516,0.205594,0.028060604328308685,-0.0012422872551011961,0.18131074802691088,-9.915226141714478e-05,-0.06931935420856741,-0.021414065255914293,0.026655404120393484,-0.004263620541219278,-0.14542777050485356
215,0.002515,-0.024877,0.02845311337840301,-0.043904781435229995,-0.2381118335167319,-0.08055891210975624,-0.04324714541698926,-0.05244630780770066,-0.00511736693647466,0.014470618785928509,-0.09891280694452251
216,0.013329,0.019749,0.027308794953808467,-0.0031459308018933173,-0.21360388803320232,-0.010222588326853755,-0.05319417146581345,-0.02558204877402325,0.04799515893530279,-0.02307329862317224,-0.07911863132530973
217,0.002515,-0.029186,0.030821365919741012,-0.04143502190725621,-0.19993144594197962,-0.09156845468475838,-0.05575778754875939,-0.013396730682303138,0.032037145187166105,-0.01707207066692052,-0.13129737621236645
218,0.013329,0.026117,0.02464982736018614,-0.02518479243741395,-0.18627202949599203,-0.0010691986241991875,-0.0471433468675745,-0.018574037238975483,0.03705187614698618,-0.00033629417590856354,-0.09205856898937555
219,0.182597,0.215969,-0.012082792296424645,-0.05955632529169791,-0.24922272046801514,0.13889366684495663,0.051094092497380186,0.05819690020342381,-0.04380921440803308,0.035006491599344366,-0.15916692813324687
220,0.002515,-0.016463,0.01962642714530218,-0.02954621611509992,-0.23505668197548948,-0.07197268863374018,-0.048322734419195226,-0.03375785352523776,0.05313744889405311,-0.003726741402420012,-0.08135726947269371
221,0.002515,-0.023685,0.017070077285724045,-0.026943866219413838,-0.23650205274318914,-0.0851016797929373,-0.050436520976987774,-0.024379805759840473,0.04605596281059601,-0.018820535458846797,-0.12399511275901795
222,0.14543,0.177245,-0.019560388792706954,-0.032689274980502156,-0.21959119437903712,0.13616568149104158,0.04889056015902318,0.026571543371619672,-0.008408621610271757,-0.012630354909891887,-0.13902411413833246
223,0.002515,-0.025694,0.024876519918476454,-0.019873988549868413,-0.22307908427292472,-0.08298939259726054,-0.06349887970596454,-0.043032663311911974,0.02479128331645196,-0.017426456541416026,-0.11081300314543979
224,0.008999,-0.061045,-0.03415317850301359,-0.04626526236860166,-0.21709545407334388,-0.018162902365707646,-0.060566781806486586,-0.030344903239189286,-0.04205422791950719,0.003437839205544675,-0.12775169504847494
225,0.002515,-0.022136,0.021136247764552158,-0.030994902727090747,-0.18600638562252575,-0.07831705449334438,-0.056199197478434396,-0.03060077038737857,0.03693401398236728,-0.00026920928917031656,-0.11748874386567186
226,0.498882,0.439681,0.023697534624722592,-0.06110221034043595,0.22385070196323112,0.147795624290453,0.07533917275542669,-0.009526030093622857,0.03430900971703627,0.010252064363235757,-0.12088889117946694
227,0.0,-0.01944,-0.01891442898104249,-0.021937437323511395,-0.21403888128879567,-0.08495835293309595,-0.05624078375952281,0.026904081369279877,0.044498584424509595,-0.0036501716481885473,-0.1332509971961669
228,0.013329,0.016648,0.023386690279838595,-0.04106953619083631,-0.22907927929510633,-0.007810985895806728,-0.06125414268306881,-0.045223192495050496,0.02775712596887947,-0.01797208369578628,-0.08708134182718202
229,0.005032,0.007759,0.014163558127510266,0.03315756263938734,-0.20420817952202855,-0.07976422769808891,-0.06262514961932218,-0.03287006065077165,0.03626439564955195,-0.023688092100062955,-0.1498583478768674
230,0.051902,0.310482,0.01450437404242347,-0.035425383278995304,0.23121762384871963,-0.09799325419879673,-0.05189058862214345,-0.01684223510869234,0.04731106908547441,-0.0022140601311285003,0.10849502206117187
231,0.002515,-0.022551,0.023737767788921327,-0.0351724707488271,-0.22665624556676386,-0.08010047100818393,-0.03570586651328837,-0.026818045696992948,0.028439551531304175,-0.005950576683751512,-0.11420022576863277
232,0.049047,0.164084,0.04250390376456004,-0.041189821299572514,0.19239301261007738,-0.10462524325389148,-0.04407370153794913,-0.008959147318373793,0.0420410711341711,-0.01547774663685559,-0.13050782974772782
233,0.110432,0.0623,-0.023258455992491052,-0.046484575472411103,-0.1857499598465047,0.12398049794306597,-0.0713888982426407,-0.005299898042980805,-0.03726784248325114,0.007112439259403443,-0.12969181739579735
234,0.002515,-0.018805,0.03133384311284513,-0.04448651963358967,-0.23896245146756123,-0.07656353553770702,-0.05769951071329373,-0.020452656434629183,0.042230983166943736,-0.032477394824268965,-0.061288693611275556
235,0.066926,0.106226,-0.024620600238943153,-0.03406397511223689,-0.21976701551442895,0.1349451855174491,-0.05227123604606823,-0.031020145584223835,0.03680726177545711,0.007401167476706846,-0.11922310157107191
236,0.013329,0.01924,0.021551092238567753,-0.044941140410676116,-0.21109118466569857,-0.009439147233161502,-0.04717986611296407,-0.01024735384602121,0.024818369060841988,-0.0136221598937277,-0.10040789647554053
237,0.013329,0.018365,0.02104581008358655,-0.034283726273286776,-0.22628451585323944,-0.011310293393578967,-0.05011927914127564,-0.013989868147459242,0.047795330843125435,0.0021784029695882012,-0.12133336591339734
238,0.002515,-0.02686,0.01736524457150189,-0.03951828845149877,-0.195026608575486,-0.08901547788365458,-0.04236627571936465,-0.019754795501428436,0.0344823212586386,-0.007190362811899001,-0.1368029839887059
239,0.796999,0.504045,-0.02622973577756483,0.05532835707406283,0.22072299662750944,0.15151355288475168,-0.046669174848836675,0.006223591522828564,0.042659166657894626,-0.010181248475187525,0.10872087034664135
240,0.089523,0.165417,-0.023540174426308676,-0.04111958967568163,-0.2049081155832277,0.1198167532639954,0.042919033904063784,0.028142466126994867,0.03078365083291715,-0.008414119091750036,-0.14707694134072985
241,0.057788,0.072309,0.019346523546908186,-0.051273066429257996,-0.2307221197534893,-0.010941928805467429,0.05945506077951513,-0.034609867819860564,0.04678429695968891,0.0005971234578603861,-0.10228964230272256
242,0.049047,0.170382,0.019494637217766158,-0.035045925637995336,0.20095659541852665,-0.08367413898249414,-0.06451428472402934,-0.0457929443347176,0.022880471242730464,-0.02725226113453805,-0.11692119211261894
243,0.14543,0.14128,-0.025172061092349183,-0.014608347028322635,-0.21116786833425122,0.13263151620304106,0.043225414802442026,0.035572518149429855,-0.041138835821060205,-0.0332662649790244,-0.13664606630267195
244,0.0,-0.055076,-0.03230705286343935,-0.0421319312281824,-0.23100884445012476,-0.07766035623504675,-0.06004951502826678,-0.034542361549638835,0.018306820875696933,-0.01657327408746611,-0.1518365137905054
245,0.013329,0.019305,0.023573974640377516,-0.0017609885196131325,-0.20787423601351476,-0.0011593547947319318,-0.06472815746763358,-0.028970166477899763,0.04479681622485501,-0.008294989786438943,-0.1121547434171452
246,0.013329,0.026387,0.03467951703547642,-0.06891098282853673,-0.19477606544912815,0.0028556303189128307,-0.05468689976832345,-0.05210941430779975,0.0397758856127173,0.01518387112142053,-0.06086284641384779
247,0.013329,0.020827,0.018948845311338093,-0.03661481000610034,-0.19689177894142437,-0.005089523766658437,-0.04323632223115276,-0.04000961426672346,0.04693028337900963,0.003598949491390773,-0.08116705668983173
248,0.051902,0.276921,0.02986342623184953,-0.0005445531784634236,0.22513720201563692,-0.09107553134143355,-0.0673106793210793,-0.02774489291131702,0.03469509580850355,-0.03240085258616755,0.08015800062643208
249,0.013329,0.020466,0.02479398040158895,-0.02526989940605125,-0.24372521216726512,-0.003918864895694898,-0.05137550315374306,-0.03398460463512598,0.05256864176541711,-0.027599012758328115,-0.09596359697340066
250,0.013329,0.016819,0.02189997098705012,-0.019122016742197205,-0.22543523075690705,-0.008987078893629414,-0.05994023320554084,-0.012284711247409704,0.03714262842875727,-0.013381642259886977,-0.07870902764533019
251,0.002515,-0.02279,0.03988749764175537,-0.03209423857148354,-0.20471734441250658,-0.07928732192137104,-0.06326343443586722,-0.03504964340032161,0.026284738129947943,0.005263329300878022,-0.12032736597255381
252,0.002515,-0.018859,0.022142504646379756,-0.04862922748350645,-0.20012199484304188,-0.07679969476418738,-0.05916170459420491,-0.02216743219893314,0.04995081927537733,0.012158042062657852,-0.1363100297590396
253,0.002515,-0.022967,0.021774745509809294,-0.040728718531087046,-0.21276824206961184,-0.07698264474440476,-0.053270592156506626,-0.017503884334636715,0.040732049358622,-0.002031283001002093,-0.09385358161735685
254,0.026384,0.039487,0.024451404439671035,0.02230192826669968,-0.22944361738115804,-0.010826067060015791,-0.05905970334139244,-0.04967658845449959,0.04098529334686927,-0.005215672181511085,-0.14538966410031934
255,0.002515,-0.021306,0.020553797385755777,-0.04187628986523251,-0.20156592899761344,-0.07776993667035055,-0.055778532515009,-0.009872498251676605,0.014844081876445488,0.017242177151878507,-0.13111105372827997
256,0.0,0.032084,-0.027471488549789924,-0.027041730748445885,-0.20981209037226256,-0.07763238001343833,0.06414419979043796,0.019597849059968225,0.012799600925113896,-0.03873002294180048,-0.12613284172558695
257,0.013329,0.019414,0.029226388334224206,-0.012575278766929501,-0.22232355341984028,-0.006604279374172481,-0.04077501884803916,-0.0475477762366557,0.030554959100804423,-0.005243208980758553,-0.08861498172151967
258,0.14543,0.132316,-0.01608345559221561,-0.04534110149080948,-0.20530604117282378,0.12056210826853413,0.04286735857760912,0.01687029823704782,-0.0325173378220373,-0.017199311051489734,-0.09304106774436251
259,0.002515,-0.022801,0.015153520717031733,-0.022956261950068075,-0.17568485338307066,-0.07535613855475708,-0.05821771748616554,-0.0229455880838494,0.02824004347505068,0.009347670505567889,-0.10131106498044697
260,0.0,-0.047525,0.024128933208566777,-0.014325855565706438,-0.19624560716050027,-0.07628246347103922,-0.040262689925203765,-0.028474626371773247,-0.02959151736853402,-0.024459221064566983,-0.14569203164649225
261,0.861281,0.502519,0.02117440665733731,0.03355398537243038,0.22755354792596116,0.13820319770079728,0.05901030619333134,0.05224451340919142,0.06511377514987891,0.003549672078449606,-0.12033687008326206
262,0.002515,-0.031122,0.011364988284051934,-0.09968105784992307,-0.20526172941601947,-0.08848108061344176,-0.056754043838817096,-0.015592974824917718,0.030694358644397998,-0.00939718015570027,-0.1265858537668641
263,0.002515,-0.023617,0.031164328320619352,-0.01745223948306943,-0.20688967728862248,-0.08316080145262399,-0.06400214915608553,-0.025682044214964287,0.025055319276390656,0.020216554403923642,-0.07356173239715519
264,0.002515,-0.015888,0.02727837799043228,-0.04115090707098067,-0.2157207305843834,-0.07011783464459263,-0.0509812046147892,-0.026555949217487468,0.037168761435729766,0.022932723356490322,-0.12293842920457049
265,0.064259,0.12671,-0.02782818515185463,-0.060313275810015506,-0.22332209011020063,0.14049594711586513,-0.0711645026717178,0.022733060856139475,0.02498646360813563,0.009012140121882726,-0.15551977631293135
266,0.046408,0.175813,0.028795500260612734,-0.026852148344706554,-0.22499527031923383,0.1317362813775521,0.04472183642963849,-0.004313561248840178,0.0402467893332814,-0.013826386734411352,-0.13229436457631055
267,0.013329,0.021701,0.039368099587324554,-0.004197179911845928,-0.20866517062965456,-0.00541334418472696,-0.057041857267628344,-0.045829326232361065,0.04328259143649287,0.002179616356680122,-0.14031792883053018
268,0.013329,0.023434,0.03798694586976667,-0.02571372551245004,-0.21612742998721132,-0.008510961952757043,-0.04508900589758199,0.0007616410962807154,0.04732589221789303,-0.017744361151059762,-0.14144861026518823
269,0.049047,0.16762,0.03842717296448912,-0.04061348378907157,0.198042550792911,-0.08841884214654047,-0.06093307531168423,-0.014303654956793154,0.019710308415938696,-0.04508064417910014,-0.13811669152230027
270,0.835906,0.346335,-0.01653848055923645,0.032297074225479776,0.22125817189273841,0.1411289909483544,-0.056328214147026746,-0.02272083833345212,-0.02623180439696413,0.0166250180315847,-0.15206941318463982
271,0.14543,0.142728,-0.037590015117445474,-0.046058866105673966,-0.2592815082530941,0.13042221676371332,0.05685137966324917,0.0317179804170552,-0.0359422657575588,0.007597402524780577,-0.13938552792679665
272,0.216516,0.226288,0.03588924454904599,-0.05375632218270655,0.20582977743835104,-0.0029982206443799663,-0.05081725868090574,-0.017216120948482155,0.028727410793840332,-0.01886400069999685,-0.15173595265129117
273,0.049047,0.17863,0.030612126324173684,-0.02700281173741031,0.2025728519680005,-0.08846607943329222,-0.055931448471072114,-0.01783139414122123,0.06186709275361727,-0.020805138849825627,-0.12076886056628539
274,0.087543,0.121465,0.018966611356547522,-0.008289851918551245,-0.2165886790786735,0.1232741194689909,-0.052861644911298876,-0.0311722680305171,0.03810238644391422,0.0031411416626745433,-0.106873996348316
275,0.013329,0.015466,0.02113987886681928,-0.01697592046090824,-0.22919562731257478,-0.010183694921482252,-0.051106340160091954,-0.03325514478080898,0.031190967883156947,0.02678229347459285,-0.14383985282905995
276,0.002515,-0.022076,0.03720929472761586,0.007668835967696688,-0.1975117560283577,-0.0808622828085045,-0.06525402938124888,-0.034738733035369965,0.03764464218376014,0.014992591298112952,-0.08989962797213855
277,0.013329,0.017805,0.01694172162151243,-0.06950013937243484,-0.18414145315515087,-0.004729010729516815,-0.045338277061252624,-0.029123800170852296,0.02411183815583072,-3.4526726559711633e-05,-0.13729948206725706
278,0.002515,-0.021316,0.02298748765477329,-0.03723780546661517,-0.19608680185658073,-0.08461136025684061,-0.04273944949043255,-0.005400613931054914,0.04581449478855553,0.008867646337673974,-0.09482242320341089
279,0.002515,-0.023368,0.013200031848324587,-0.030075832856433168,-0.23473723359608156,-0.08156376592479776,-0.040375797216397814,-0.0359252202974538,0.035508582579473584,0.011941863634218508,-0.0883988193721658
280,0.717472,0.311917,-0.02232741927384057,-0.03443628297405919,0.23079357922048319,0.1455321165901763,-0.042340314994536055,-0.02239696280585205,-0.039437321005010635,0.016054427355958554,-0.10215254302355085
281,0.013329,0.02322,0.029324723838517256,-0.05346559108483778,-0.2006238896806861,-0.003813270359824106,-0.061385174321519874,-0.004436153126801744,0.04107858380445999,0.02935172410163541,-0.12258612820659172
282,0.022565,0.055304,-0.021116667726747834,-0.04186631574396542,-0.23898598350820868,-0.008103605987424961,0.05896111354842442,-0.021947380582449855,0.0459054649039224,0.002531011305045747,-0.13360026757255006
283,0.776847,0.409446,-0.023846770941371907,-0.04574414873592038,0.22672311207250045,0.15548161589209417,0.06686807744364326,0.0356090215045158,-0.04285570142474772,-0.0021698990172099096,-0.09071633024635749
284,0.002515,-0.023887,0.02430899703912319,-0.07051833845801278,-0.22500938580846674,-0.07989790204251915,-0.05611654186923745,-0.003697524267720407,0.029164845286489043,-0.017474829044496043,-0.12117948845775793
285,0.013329,0.015114,0.025393084233633026,-0.04716122890092545,-0.20214040934486868,-0.005032342671587135,-0.05681293786018373,-0.015207742397492586,0.018691001349003002,-0.06344852249071975,-0.11131247447581706
286,0.556469,0.328154,0.03342513955850195,-0.030263640027137356,0.2472812350412055,-0.004380238578332544,0.06393045538869781,-0.03846728207134423,0.02875859371723356,0.005129610702409166,-0.1743645269662379
287,0.002515,-0.02449,0.019338469711356894,-0.04692397590263632,-0.2068417667932148,-0.08181136170361956,-0.05547694538537754,-0.004676797712322,0.015841232961814,-0.022867759238838208,-0.14281622620074694
288,0.05924,0.113383,-0.026652923119124396,-0.02701927791560011,-0.22979357674124978,0.13071694886105828,0.04864095804014192,-0.013930438806833643,-0.03845207739431327,-0.01984578000460787,-0.09505942664857889
289,0.046408,0.175142,0.02536849914154225,-0.026711820039148567,-0.24329034430463084,0.1298813491888964,0.049279549598636105,-0.04549959066922623,0.031352245084000537,-0.005549080642721004,-0.04529752875311412
290,0.087543,0.131949,0.033205121887456224,-0.021649861298307354,-0.211692264743364,0.13562014122753724,-0.053380200625561584,-0.0330735015082191,0.027994124045802524,-0.018329931109361947,-0.1571242465739653
291,0.008999,-0.071948,-0.023822523025352416,-0.03890781904211167,-0.1876089584332915,-0.00645661231213336,-0.044373132091155676,-0.04671516178228815,-0.06955780638503571,-0.02049287072418883,-0.07561301887936561
292,0.013329,0.019072,0.03296643092180215,-0.07259840826453404,-0.209495718546225,-0.012576196064044419,-0.055612090653292076,-0.010714395808797291,0.038514588087899815,0.024557749743399155,-0.10444483964510544
293,0.002515,-0.024441,0.030047303501245445,-0.052303062999735146,-0.2264265033543483,-0.08304644106610523,-0.04003461900008092,-0.020250124312999242,0.011641590971283255,-0.023510017202687302,-0.061966545455434036
294,0.002515,-0.028005,0.03463613891316503,-0.030808712134673167,-0.22366017565406426,-0.08689709770581791,-0.06451266709321764,-0.0315538420975046,0.027576998961011363,-0.03748042852306989,-0.16319684127228348
295,0.066926,0.115584,-0.026978987957587776,-0.010979271230941832,-0.2311052029814046,0.14767023026573078,-0.051490125308157955,-0.04875192475995586,0.04223582863468792,-0.03600679592602503,-0.09008430068368393
296,0.216516,0.248878,0.03530247169728433,-0.02220778551148374,0.2284130272052543,-0.003748720104820362,-0.06464404728603898,-0.045844725071283454,0.040990273194323044,-0.0005581834550681059,-0.12097365897443464
297,0.002515,-0.022828,0.02074227779085971,-0.004578194311842981,-0.22824526062803377,-0.0782868511255673,-0.05155421529675759,-0.03164746339568179,0.03286081551797927,-0.0018334918197948056,-0.16992654575222105
298,0.002515,-0.025398,0.026150679416154555,-0.010310732008963984,-0.22943886061958083,-0.0802401356753017,-0.06976105047747923,-0.0569195926391769,0.01006773319816725,0.014598151705167966,-0.07258937922663924
299,0.002515,-0.031325,0.03601629454036889,-0.01976533883702809,-0.22373042903689563,-0.09120416351494479,-0.06346150050651651,-0.04118473350710703,0.05019493196868189,-0.014154462968755378,-0.13245108547139925
300,0.002515,-0.025136,0.034176502000137346,-0.03798203867522584,-0.19964704799314706,-0.0905590103770149,-0.04209773181053062,-0.03239486424680956,0.04811595789106841,0.015103867854473216,-0.13396165605578483
301,0.002515,-0.02453,0.013453861732044249,-0.022965788064545054,-0.21537884740787522,-0.07910361255971514,-0.06352839567474913,0.0013039378216723185,0.026241797146666784,-0.010889794895918486,-0.12539562077310912
302,0.013329,0.013565,0.03371236686091924,-0.03520646832257156,-0.2144542995983429,-0.02067059964746826,-0.04703357294135937,0.002688340785301736,0.01793616331355607,-0.009540186982391875,-0.1730705638595412
303,0.013329,0.016369,0.020788207329221556,-0.04497094993734548,-0.2298789405831889,-0.012400331981846134,-0.04529324891168371,-0.02138995400305901,0.03678279745776221,-0.015402408827568596,-0.0853955488864682
304,0.226796,0.321631,0.01678069889122729,-0.06172935546275315,0.21023711249677643,-0.009940676119297259,-0.059028502639417516,-0.023997500369155746,0.05950604974166371,-0.00308507786125494,0.09511933870480983
305,0.675656,0.484218,0.015808917454335644,-0.03540510574422586,0.230871161324579,0.14255180392172517,-0.06163783053317355,-0.07514272927625683,0.030483384671976938,0.00509020305422178,0.12014256087378324
306,0.049047,0.179387,0.013710886271670593,-0.0066691257907446,0.20689598122229824,-0.0860869591731359,-0.06709800382252348,-0.014146079102380913,0.0499634807411927,0.009259574964848917,-0.09998443501014342
307,0.013329,0.020221,0.03843100842694344,-0.05195798892159402,-0.23169908896797556,-0.004006744468411447,-0.05402686780524317,-0.030660074224971728,0.02154531973956372,0.012370467296287904,-0.12409284041764493
308,0.002515,-0.027028,0.026259589624219974,-0.07803582053160764,-0.2098040587604179,-0.0810229177737036,-0.06359943041011983,-0.0494047207796161,0.018298294782248443,-0.017778973256361012,-0.10849048130874413
309,0.013329,0.017678,0.01776973043563665,-0.03045877540883366,-0.22236042855928806,-0.011050958098783108,-0.03744228804374752,-0.03801808113741712,0.04294447025086523,-0.011353187654099681,-0.11723567589486038
310,0.002515,-0.019241,0.032960075534434585,-0.025148110630117845,-0.19581829632724038,-0.08185027173014252,-0.04958302767383596,-0.02309303003304852,0.047576516973695776,0.0036732137575498747,-0.08375880061233916
311,0.662462,0.396986,0.04204924189190802,-0.03051130244263817,0.2337580051216187,0.16919970563663886,-0.05429516432317813,-0.033762340939018476,0.03307421776010395,0.002252024550588655,-0.10677397184842685
312,0.002515,-0.015374,0.034646222789945565,-0.04726002233885704,-0.19283453108262325,-0.07477866888201809,-0.05149969401177284,-0.01160078542447209,0.028187093367448006,-0.003506689006015428,-0.10053780848535199
313,0.002515,-0.021873,0.01889741313725553,-0.02716621659208781,-0.23221765277131565,-0.07994575988779283,-0.04717422886183963,-0.02609887724518631,0.03752444208257164,-0.0025649739631624724,-0.09683324478464035
314,0.013329,0.014983,0.024123752009850664,-0.05972528438391552,-0.22049586332049445,-0.0016531771310476313,-0.060107156941775236,-0.04955534307831236,0.029425697850685353,-0.054063005034566555,-0.1163653493621775
315,0.087543,0.129531,0.024342713060078507,-0.03803556295377926,-0.22184998870364642,0.13429840325515183,-0.04455908512793221,-0.029755058674554077,0.024173470028881133,-0.010715286854948594,-0.09270790339792177
316,0.060156,0.061853,0.032593666619150675,-0.041690309831375276,-0.23220159730812204,-0.008668090669990325,-0.05291008130941338,0.04528391533676343,0.029849892797755673,-0.004215694715592008,-0.1584089636923235
317,0.049047,0.201304,0.022182769802791307,-0.039124290939086655,0.22559990874146313,-0.0830223258098055,-0.05952578314898243,-0.029596920732935142,0.041141771145895414,-0.011669113956569546,-0.12736385531314603
318,0.013329,0.017847,0.03017387564367454,-0.043274882163986964,-0.20588351421095885,-0.007883471100906194,-0.05927320156422656,-0.032142481374294034,0.0350952549550618,-0.0028902621570229756,-0.13289326024547016
319,0.013329,0.016958,0.023198184201611852,-0.020913852738994678,-0.22424895545083476,-0.012946379110317987,-0.04703397310716003,-0.024065179578884537,0.03708826209188555,0.005730517322351099,-0.12372858726101156
320,0.002515,-0.024724,0.013895909937674696,-0.05332262199866071,-0.21003548755638296,-0.0808956976738628,-0.05150597583792142,0.003180884335385645,0.010438612592452202,0.006170244896115393,-0.1312672841518006
321,0.216516,0.240414,0.0359359975633826,-0.014942256024167155,0.2238820827044318,-0.01973451746413447,-0.050693636375612215,-0.023619269750384232,0.06049549958986634,0.0038272691835720663,-0.13297788063562563
322,0.002515,-0.024596,0.019418701834705374,-0.021330247310550676,-0.20432775953796603,-0.08710020443419075,-0.04200561952006108,-0.03857142183374189,0.042215005964671065,0.017709286586096544,-0.12822934593366148
323,0.013329,0.018975,0.013697731030228444,-0.007252456109765027,-0.20591696662195125,-0.0020934358459958795,-0.06345765033123899,-0.04934070607603555,0.051143761100702775,0.010666518421141854,-0.13910648776715084
324,0.002515,-0.02387,0.030242733571675725,-0.023445485653315883,-0.1919478962970767,-0.0799313697779203,-0.06063167385917119,-0.019358640201632273,0.03629810861541167,-0.03276864924256041,-0.13749009821678437
325,0.076348,0.153604,-0.017223925170425376,-0.022741835893967333,-0.2215634075295498,0.14232499080131378,0.047586361702990125,-0.032608012934442855,-0.03545662944254365,0.022196340302213024,-0.1364242170085578
326,0.060156,0.04084,0.03600232395871164,-0.008514677841273943,-0.23514104184326312,-0.007149335429677946,-0.06335608871081577,0.023175324119837002,0.04389529072165641,-0.012432419276031663,-0.08482839097924236
327,0.087543,0.123348,0.015147103095126376,-0.06514615641853745,-0.2253775459191248,0.1270133620036021,-0.05298908967525969,-0.012373921465352477,0.031450172767709034,0.0028031350619030144,-0.11907736046155541
328,0.049047,0.212069,0.044114401632773956,-0.022678758466069284,0.2312058360706307,-0.08872017768835393,-0.030173853759674164,-0.04526925831879416,0.04508876572458166,0.009338520890078528,-0.0935943621696417
329,0.14543,0.138363,-0.03532528626800188,-0.019584485636180923,-0.22943309266540246,0.14607980634604822,0.04845329193687851,0.023673980644310953,-0.04173689900955381,-0.00970377041191235,-0.12604066036453693
330,0.002515,-0.02862,0.01633268978542361,0.005640866143152917,-0.20390078639401787,-0.08096721765567236,-0.06621030283308775,-0.027765588898422,0.024877121751252174,0.010988483580386888,-0.12029162154233772
331,0.043701,0.039755,0.024368172941413496,-0.08849150373778918,-0.20189585450926134,-0.0745980329276451,0.06065059172521808,-0.007100843288269905,0.03520235712125888,-0.011651257342971693,-0.12035134314921883
332,0.0,0.005777,-0.03174685307604425,-0.03154356427769368,-0.19886508203865655,-0.07359360831812581,0.058203994808576,-0.04689911194487652,0.027994443396224564,-0.007601217659019427,-0.1146270115618325
333,0.14543,0.149887,-0.021605592583390395,-0.02103308778094414,-0.19998795603319497,0.13266290601369274,0.05919507642260292,0.02028600268694776,-0.03816883104538884,-0.0136862774586865,-0.09765353084312808
334,0.094219,0.196878,-0.032754667638971044,-0.019223007375076314,0.20857194477448046,-0.0024658591975283864,-0.06055593292696325,-0.05630271398412456,0.04970771268863006,-0.01636551236465513,-0.09826327743382357
335,0.005059,-0.005132,-0.014994301679610168,-0.03263624794070298,-0.2587932323143594,-0.019178823196035814,-0.056310352515940694,-0.008404786132775377,0.021925885159277174,-0.024558928338900138,-0.10704514757991497
336,0.002515,-0.027805,0.02125363740712339,-0.041099744522927605,-0.2229654058226957,-0.080605268631004,-0.07573340687425924,-0.036048502107253536,0.03215736195550188,0.03701173979746905,-0.12365299580129115
337,0.483157,0.272092,0.03828458388469138,-0.01582814836770764,0.23582431063524092,-0.09378873580858045,0.0682921833243122,-0.03606884147236893,0.03440851404977703,-0.01498870585530353,-0.055737241197812926
338,0.002515,-0.028197,0.018581835408494493,-0.016293720030965655,-0.20029814205206659,-0.08698919640425169,-0.06282826850012099,-0.01981979368336007,0.040559906506378744,-0.06408958693411237,-0.09009503740980647
339,0.013329,0.012994,0.02800342430988988,-0.00016769515951361153,-0.242100631184899,-0.015805405028854264,-0.058901020944243335,-0.0384873016562347,0.02813714971055377,0.020276890171736884,-0.11678453926576177
340,0.046408,0.168636,0.02163554885792079,-0.022400700464682368,-0.24391263835796873,0.11262330371431019,0.059635302153871056,-0.039899009316263216,0.03929383480952395,0.01562546968115253,-0.14050866976693321
341,0.002515,-0.026257,0.02528922470033307,-0.05915067864185322,-0.2133606237563463,-0.07904505285158095,-0.058914600527646195,-0.02729981632422451,0.023571189294498713,2.197117258534298e-05,-0.10613217001392806
342,0.002515,-0.024621,0.02930049552848942,-0.0820937677353904,-0.209296527858679,-0.08264990246313346,-0.05415395339372631,-0.029582508981431367,0.04452234525726776,-0.034589729562782945,-0.07537037462930583
343,0.0,-0.047205,-0.029453304302476436,-0.061059564072383825,-0.2125859860885287,-0.07572879596862461,-0.043464402758004374,-0.044271339775630476,0.043292320513585426,-0.002976850673224661,-0.12295629394692523
344,0.013329,0.018953,0.017168441000922543,-0.03046803084897909,-0.21818851925480812,-0.010479264898129819,-0.0499323662978618,-0.02716692326521304,0.048426779921757764,-0.000122268818335379,-0.12167685478422485
345,0.013329,0.022727,0.045928929058511724,-0.03155691413242083,-0.20464054993863381,-0.004008953411188718,-0.05456833906901999,-0.03212552929405942,0.04643835099611273,-0.0013240026736123216,-0.1466783879310762
346,0.013329,0.018875,0.021514972098292666,-0.015323414071753524,-0.21579695871784682,-0.014333991060499795,-0.04005629226235091,-0.007661561791824014,0.0392962178523622,0.00876363020291284,-0.13521699830619804
347,0.024956,0.045773,0.036842627676629845,-0.031162603513493214,-0.20421078686846475,-0.0930361011599423,-0.05840171743152636,-0.043855158126543066,0.03843407701529406,0.012645856395904964,0.0742992575161403
348,0.008999,-0.054866,-0.02113971773940004,-0.04184636418707713,-0.22239523722565938,-0.005910261468954437,-0.06436102962737003,-0.030929498773780102,-0.05337092752302472,0.00497610427988767,-0.07526515276046221
349,0.013329,0.013954,0.015618867140734592,-0.03731089996194885,-0.22592250915894102,-0.011286379901906743,-0.04906766421403404,-0.04321200921000988,0.03567456754861419,-0.01118600606593118,-0.09875644884801378
350,0.008999,-0.056818,-0.027566142714899874,-0.010816077704106655,-0.23696792470444877,-0.012307631886724834,-0.05277727632076786,-0.035292864766443985,-0.045777222169056636,-0.002641131553705293,-0.1477402796419033
351,0.013329,0.01746,0.017023170924803478,-0.014702219307689952,-0.19712571941956736,-0.0035245670445249113,-0.04924406405149063,-0.014589534260953016,0.02819579732614158,-0.029276669220584223,-0.15035218259726488
352,0.002515,-0.025538,0.020536576348633814,-0.05291818375217277,-0.2215099836999831,-0.08378405366335386,-0.0572238078596008,-0.0013010771060453165,0.030638103754015166,-0.005623763154416975,-0.13133109704973156
353,0.013329,0.015659,0.030904416670132964,-0.05115189753159583,-0.2550997570137977,-0.011394363710538317,-0.049991772370573374,-0.04193775709753484,0.037959997966991614,-0.009356430655090746,-0.099584347722355
354,0.087543,0.146685,0.023909580123081576,-0.04648219454327827,-0.22634491961013586,0.14791238260185618,-0.03855278006286396,-0.0035027981464301303,0.031219815053406482,0.015750119030684535,-0.111812410521374
355,0.002515,-0.025515,0.02038005270778857,-0.07763691079023616,-0.21316962444558196,-0.07651798866873163,-0.04774769997153077,-0.04143181276585055,0.015672847676977394,-0.009436437253995384,-0.11769155627558883
356,0.002515,-0.022118,0.019243839941980697,-0.0454969891828226,-0.20585616340118315,-0.07513176695071742,-0.05411337784096039,-0.030096639164910496,0.049478710142804146,-0.01856302969491288,-0.10600782703578505
357,0.216516,0.236171,0.021979812358596487,-0.027278704229724195,0.2188623533058878,-0.009815311856516079,-0.06946512570099689,-0.028149450214593235,0.05496282342080552,0.014667771037128772,-0.12158767648004919
358,0.026384,0.051228,0.029205355734633454,0.029466814568253355,-0.237049685550212,-0.006832713172644905,-0.04679132789370855,-0.026871110653678514,0.050147065396850085,-0.025686684888729616,-0.09584607843085136
359,0.013329,0.017281,0.02215195336986499,0.0006350600767601588,-0.21247545480023353,-0.011356117613326985,-0.050448345621287076,-0.017970004221758245,0.04523721964617856,-0.010132981078411171,-0.11020608703510135
360,0.226796,0.38314,0.021626517687167397,-0.1023841401039734,0.21820884727132098,-0.01327668888569989,-0.051676027609870515,-0.030754714706733504,0.04298735881996407,-0.029306771896323833,0.15063317979878338
361,0.0,-0.027841,-0.026356429379147527,0.009576564724172683,-0.2365555683610646,-0.08456839613352696,-0.07414061231781804,0.023649290710248714,0.04241086306969196,0.014985636559997441,-0.13932431097570597
362,0.002515,-0.022416,0.026637133399930717,-0.05169859160300133,-0.2422753187561636,-0.08755339200495986,-0.04270191247040462,-0.031653583458233846,0.03225564538605301,0.0006391856797902881,-0.12804678057061936
363,0.013329,0.019593,0.01319335157450605,-0.03555426945135286,-0.21033021867995064,-0.0012813874861435529,-0.059257764490023915,-0.027060331408671607,0.054788319105420945,-0.009287153424173931,-0.15142099296174574
364,0.662462,0.375098,0.04144414129161952,-0.028908616989541343,0.23194649142809753,0.15022372022493616,-0.053179754205315455,-0.055655085156372706,0.03578704326694655,-0.01030649641935738,-0.13655675822477475
365,0.667926,0.457631,-0.0271565676157569,-0.04531119419314662,0.2656164089136881,0.15878683686962689,0.05050187337346801,0.019447882270395147,0.05028661826978681,-0.017860304496176514,-0.1425882256404942
366,0.051902,0.275967,0.04014468439813895,-0.020382529254159718,0.2228731755505216,-0.08840819735897308,-0.05023980559033818,-0.031145410066317124,0.038836759874241795,0.014787560876346414,0.07515805565195298
367,0.013329,0.017747,0.03378597769559396,-0.029909537600603223,-0.21674312349325164,-0.005063883694915008,-0.06722929810748324,-0.03793639244212562,0.023216877059413187,0.03467736471335238,-0.115739829725113
368,0.013329,0.015596,0.0298395869366735,-0.052236720232999675,-0.2167780393721238,-0.005714058359722458,-0.07208407244902902,-0.037617166265796684,0.046231768216283976,-0.008066171034350172,-0.13327070620570902
369,0.662462,0.37734,0.02687614823870056,-0.027956665087875376,0.22409153620688899,0.1573852820209495,-0.04801687222080528,-0.012031668124560078,0.05032664473696914,-0.030285365543825025,-0.13447252119592162
370,0.002515,-0.019383,0.02219526491809804,-0.015124211503590008,-0.2099840019027458,-0.07240594318628607,-0.0593733881852414,-0.016181401774991853,0.03824784374397114,-0.021585907356821924,-0.11030034245712372
371,0.513777,0.559113,0.029074465582192226,-0.020329075166918894,0.2177146343568186,0.15787433738750467,0.05786083198934472,-0.030294448416848516,0.05315516067593602,0.004089423241799587,0.12770418743969866
372,0.008999,-0.034447,-0.03211737443008746,-0.04163244842640061,-0.21237731211983535,-0.007722922118223278,-0.04742021673478226,-0.015022158667997866,-0.02334879532528222,0.014506137764795595,-0.09907901077791406
373,0.002515,-0.025634,0.021086927178067556,-0.029451786845808972,-0.2372207776459271,-0.08639266034902855,-0.05015524363289917,-0.025813173519173227,0.03691806761468208,-0.011055718908175976,-0.150791661862994
374,0.013329,0.013601,0.02073925050212813,-0.051222063825271114,-0.23517854227701662,-0.010697098469862774,-0.06287676886377497,-0.02274712547155117,0.016480405006958992,-0.005864084621920688,-0.11759835546640839
375,0.681009,0.600885,-0.032360901217314365,-0.02383185935833282,0.26689001178423166,0.15968934442197993,0.06883594360408349,0.03981801725989813,0.039163132704807646,-0.008154425691536417,0.1073763202383004
376,0.005059,-0.017304,-0.0295954548630431,-0.06982999945407302,-0.21541054284287278,-0.014857329249734015,-0.058706274052650075,-0.05541517508818161,0.03409494762985449,0.021326394147463738,-0.12718230558701685
377,0.013329,0.022215,0.02654600995687457,0.010815413374210213,-0.22476964716323974,-0.004232316898769668,-0.05700826359762146,-0.03913272758607625,0.04749403524590877,0.015710454482982812,-0.12901468954707573
378,0.662462,0.393114,0.007063072993456774,-0.05122119814150252,0.23689293266092534,0.16987789618381866,-0.08153080428304262,-0.04461031092101003,0.03850370584557831,0.012918377741896943,-0.09868421094669975
379,0.049047,0.177821,0.019970710473794506,-0.023280960050655067,0.2052452391133191,-0.08635276644358701,-0.05257457179652253,-0.030958270074977128,0.0357762779041711,-0.03048096949225274,-0.10908490953449566
380,0.013329,0.015721,0.01865853009087313,-0.046923735315487526,-0.20897900856302196,-0.012032278589608408,-0.04415269453796509,-0.02563474749700866,0.03654911330969222,0.0012807019558200815,-0.1321297582902711
381,0.013329,0.018875,0.027875076023941528,-0.04838124989398081,-0.21225098286367072,-0.006018192498842827,-0.0645333358450136,-0.024605533440017882,0.03743040108614572,0.004460366920331625,-0.12070255182887671
382,0.013329,0.022003,0.03368436786942619,-0.005596221003154359,-0.21835381137419344,-0.0029541417158298667,-0.06215238494212271,-0.029909118375379243,0.03264241439737246,0.012970874856951269,-0.10782575146219547
383,0.014218,0.010317,0.0335040584903636,-0.03666892580518174,-0.2411962334810578,-0.0030788723408172835,-0.04580182290140924,-0.040947804536141455,0.033297850518930285,-0.014033107258701182,-0.11522671863845567
384,0.089523,0.165384,-0.02506901862368869,-0.0485101415504233,-0.1984664542982423,0.1366144638872489,0.04317477848173239,0.014569797453886963,0.02987084552064632,-0.006060609159770524,-0.1311043880804439
385,0.002515,-0.023805,0.022452612666390384,-0.04005190869168115,-0.212186856744098,-0.0754559335559,-0.0694991589903881,-0.026938997623101067,0.04687173247475054,0.0032715136220767345,-0.10537516708230102
386,0.049047,0.17681,0.02118165527580999,-0.02682714089534015,0.20469099045007214,-0.09169039024811751,-0.0665546306738701,-0.019219054232226408,0.0345669415501384,-0.004950874459542614,-0.13127770744195333
387,0.111853,0.127198,0.020521611090166068,0.00011942847712261246,-0.21405435469882667,0.12852037037946126,-0.054016890783737025,-0.050533879886751315,0.0412787670365427,0.0008726889330187576,-0.13364892712577656
388,0.049047,0.182265,0.025923457598512653,-0.04555822965586963,0.2151847539341088,-0.09084261847191581,-0.06639738707599875,-0.03803175748146718,0.031609146087194326,0.005117997706559455,-0.13212246648425707
389,0.0,-0.008205,-0.029876956341374765,0.0035924752320481237,-0.19659428928314468,-0.07157206274376347,0.036448757061070855,-0.059708977186714675,0.041958025481949775,-0.009055554134854892,-0.11752507134630816
390,0.002515,-0.028843,0.019849845155191923,-0.06503300955711704,-0.21086600633357455,-0.08627076767370662,-0.04227526154413488,-0.027300455648047145,0.03815750473767306,0.0022324656141894483,-0.07991281440725746
391,0.043876,-0.019393,-0.024770267223005404,-0.006504487382321806,-0.20100450200612205,-0.00645989856025743,-0.05653558218098387,0.020399256688429568,-0.035270168146721896,0.0051364266926647315,-0.12383819081943691
392,0.005059,0.001322,-0.019621549291426836,-0.011029555230646153,-0.22764033855301619,-0.00030104353302424987,-0.03940791384220033,-0.05856649858863414,0.028360835136494515,0.020279940210087558,-0.14329917743434417
393,0.002515,-0.022857,0.021383832099150627,-0.030498200703455637,-0.19065374769614232,-0.07547090910634882,-0.06739389086034434,-0.032337102541401846,0.030358301447428654,-0.004486125027080724,-0.11662099430949086
394,0.013329,0.021281,0.02640118932918031,-0.02325177959596812,-0.19232066140231674,-0.008241996097031466,-0.04328676749804955,-0.027598356728254253,0.019400977696487392,-0.0013874817164157482,-0.08679249666241835
395,0.110432,0.078285,-0.02396897874669283,-0.04709257694248469,-0.23795238284004444,0.1455030492575424,-0.05445747927043822,-0.04262658926800885,-0.03639166502870068,-0.004541067739841457,-0.13515609188079356
396,0.087543,0.13397,0.022577939876556413,-0.07591647011398568,-0.2491530843068332,0.1405757399982998,-0.045313519533986935,-0.01527930287201314,0.01257808416390349,-0.017031589906448864,-0.1159397910327776
397,0.002515,-0.021009,0.014417362294675962,-0.06055281445402864,-0.20733276160738712,-0.07607869873507431,-0.059327437231449974,-0.005528822948942097,0.03273044257321523,0.0016000741914166895,-0.08668707024395868
398,0.005032,0.010253,0.014437527746123339,0.03754378317080107,-0.23953682746756358,-0.08420433730256928,-0.06447306078395001,-0.031108337728526652,0.049382720438943095,-0.008757407663868644,-0.07921379911698768
399,0.002515,-0.019614,0.02529465819138798,-0.031237992345396634,-0.21284795544638993,-0.07869633324595726,-0.04648191095041723,-0.03387798529009322,0.008433899379709545,0.0014729063001423194,-0.11770436504279388
400,0.0,0.158506,-0.0333866875683695,-0.045986551763623706,0.21806217911577863,-0.09047073025529166,-0.06260333725026061,-0.00585192617152808,0.043967245844825295,-0.011948026477921724,-0.11425040783585691
401,0.002515,-0.022013,0.030726300987861117,0.010773393814434679,-0.2020615232363959,-0.08615094415986918,-0.052669850571966124,-0.02932998706330793,0.03621307172061908,-0.010862266218003666,-0.12495548414491696
402,0.002515,-0.02158,0.024055572908986293,-0.0766621932269656,-0.21017802043399259,-0.08118359194534977,-0.03967595109280401,-0.023342889852102776,0.042067104049109225,-0.008766759828108966,-0.1477507747542148
403,0.013329,0.015265,0.02099873148065633,-0.0285951190353649,-0.23125840583745988,-0.009190477059511268,-0.0557321945902744,-0.021897678519433306,0.038464137309110004,-0.020644256565683496,-0.1463833520546273
404,0.005032,0.021464,0.020504088663946707,0.04606586196260004,-0.202388549370717,-0.07953482491103588,-0.0552681720113673,-0.021039156620069974,0.022448105631979288,-0.029006484574544234,-0.1256460140754562
405,0.002515,-0.027785,0.02309497499306007,-0.03294725716809262,-0.24029250400949806,-0.07972383456734071,-0.0468697625044549,-0.051026201700563115,0.018412662820703796,-0.029273463212988477,-0.14539715891351124
406,0.002515,-0.020527,0.02578880071855945,-0.02787452157114186,-0.2079045620376576,-0.08101512547575328,-0.05240527457160013,-0.039726706995746125,0.04316986909795216,0.015160192338184017,-0.08019728229093459
407,0.087543,0.122369,0.013496163915087013,-0.058599847646639155,-0.21499782489344774,0.12828232128610909,-0.05430186368690284,-0.026276846238727117,0.024392758584038943,-0.011623299115239174,-0.13215786415868674
408,0.013329,0.016859,0.019846615069519586,-0.03751597045717306,-0.23810756653261778,-0.00903135055899248,-0.0636060110925148,-0.02323937613283133,0.02158857121640085,0.03178394746913984,-0.09107978128960555
409,0.013329,0.018188,0.026627648849354053,-0.027583981865584774,-0.22727738416850882,-0.016221347456617432,-0.04336843127689447,-0.016813938947533805,0.03758070605998592,0.010745199425718055,-0.08887367418172112
410,0.335194,0.242906,-0.02735368134595651,-0.011825172048317437,0.19505066097422713,-0.004933647941302609,0.06204098780745413,-0.03645450844071464,0.042030760742829194,-0.006960706244318633,-0.08940496124716626
411,0.002515,-0.026998,0.027759342778351383,-0.03911773394795035,-0.2184096849765062,-0.08446981070265026,-0.06450101718728947,-0.03383524566519363,0.03099313886900231,0.007230386519352142,-0.10846847460015953
412,0.013329,0.017237,0.020358431935670482,-0.056174002016538424,-0.19643779387843485,-0.0027870405203565037,-0.053473592108062136,-0.0508249879224168,0.027292461349496477,0.004833976862617057,-0.07825194220373391
413,0.056145,0.086634,0.023158417221882614,-0.034456156505881005,-0.23138027481375611,0.1477378198229517,-0.048518102757251415,-0.009233701395765227,-0.058822919579279445,-0.038259859076261886,-0.14743028731269767
414,0.216516,0.2141,0.01841270405230588,-0.016177347824911887,0.19388587554126743,-0.0022082633253422434,-0.06403358305539311,-0.014031140177045901,0.03931669305714827,0.007582417727186954,-0.11510612442371247
415,0.049047,0.199917,0.03956242607748725,-0.02864590834726483,0.22649921999753084,-0.08832573446589868,-0.05371089532119139,-0.03285241577666013,0.03394247210975123,-0.01839447147892449,-0.1213146379277602
416,0.013329,0.017338,0.023055170665474155,-0.027569709700395205,-0.23281844421771364,-0.009211593689816739,-0.04139489011956163,-0.028905024477400773,0.025738443587262495,-0.03613137134409724,-0.06859331542429385
417,0.087543,0.116243,0.012243447107968876,-0.029919560247142204,-0.17263328588306434,0.11655988040060486,-0.05144668843016695,-0.000911816047065249,0.02694876100143685,-0.011668097787172165,-0.11365733751718263
418,0.008999,-0.04591,-0.029873036735633598,-0.051386588204828366,-0.2031840291619449,-0.004182846906638594,-0.05077235904407826,-0.032653309199040824,-0.03632410800616583,-0.022596901486675303,-0.10690644811791425
419,0.131423,0.186229,0.02180471263148206,-0.02527358187710312,-0.2314384193650219,0.12794640581548755,0.04896100851876061,0.011554300669748009,0.03542866624664443,0.01665967295225504,-0.10719979632780624
420,0.216516,0.251255,0.03802094989139883,-0.04125424518143907,0.23421585333028247,-0.009416249662409162,-0.0649282368592054,-0.03250784351198803,0.04591713244662114,-0.06283881841921249,-0.1350969722271199
421,0.662462,0.392057,0.01430830794957026,-0.01131035674367235,0.24359692550812512,0.15707591566840085,-0.053913175038219796,-0.03285071889080165,0.052457793375459784,0.004320981748717486,-0.10113634483716087
422,0.216516,0.234853,0.023352547266849863,0.026884573391078557,0.21486763509344897,-0.003777487160758648,-0.05769469538841559,-0.030651671369512936,0.034440129564554715,-0.033840238241865266,-0.13192127154200495
423,0.002515,-0.017856,0.03768630351247652,-0.028567803048263573,-0.20676294077662588,-0.08110142456920397,-0.059619441735278396,-0.029880169706016205,0.04816207747240679,0.017280486345688087,-0.1045656013972192
424,0.002515,-0.023346,0.013726922869440338,-0.008431540255311074,-0.22530492011329037,-0.08043455390861962,-0.052647794906057054,-0.028841067685791415,0.029086713393605357,-0.014564732921774954,-0.11487590710260961
425,0.005059,-0.017653,-0.03681591059638933,-0.0013661637213607904,-0.22856068982171807,-0.01045369183300816,-0.058722740482458936,-0.03886797328321591,0.047488843232897544,-0.005826544491249873,-0.0941078351790517
426,0.002515,-0.026813,0.016857001993719062,-0.025433555692709525,-0.2012001865890563,-0.08339185862025097,-0.05698239060694705,-0.03173155954339892,0.04227332548724925,0.010647548183211597,-0.11548954326639353
427,0.008999,-0.066074,-0.027496430082210747,-0.055399079450210824,-0.22763604053902006,-0.013054459932715676,-0.04350884381469452,-0.045130452931897214,-0.0562416834966199,0.0013803848241724006,-0.08331076744926333
428,0.013329,0.018073,0.027039852081347075,-0.03185646537853731,-0.21699380803274448,-0.011117130375088286,-0.04392959648178047,-0.04093197015228447,0.041340775908273016,9.064417048291738e-05,-0.12114141633445949
429,0.017889,0.010533,-0.015526896979260806,0.03588093218030161,-0.20661674347170936,0.00250096107641217,-0.06234658289723383,-0.018210461159843407,-0.03080684663710669,-0.01771344652446785,-0.14939042991513846
430,0.013329,0.017293,0.03291419621325982,-0.0601686473169521,-0.21689420081151226,-0.013677324196414146,-0.04906960645171271,-0.036923197707521706,0.04032029288154032,0.0011873054049068835,-0.14684730584869027
431,0.662462,0.363857,0.025146770255968703,-0.01775552921528879,0.2280166967543743,0.14156322706149166,-0.05700752501092486,-0.01743673359068462,0.03509466375949004,-0.007842012742596476,-0.12788066841505333
432,0.025054,0.019038,-0.028167906834615238,-0.030606743172758924,-0.2123858886882629,-0.003729884618180016,-0.06328541677915414,0.027449056070542294,0.02854672355082783,0.004066778281340859,-0.14504572986654563
433,0.057788,0.0901,0.03816745423700333,-0.0011533371530339208,-0.2331158644462681,-0.005541811924619024,0.06963401720252108,-0.04089627602816458,0.046814219691129734,0.010391717424086148,-0.15329885790865083
434,0.046408,0.188068,0.023443286222716336,-0.023634466529591527,-0.23738124922312678,0.13236208293656995,0.05907562872826156,-0.027907334478494326,0.044827513024470286,-0.033662181510655274,-0.0915756873700062
435,0.087543,0.144101,0.024442484548755805,-0.016634071181166478,-0.2419606120512486,0.14750166526242106,-0.06352073074736547,-0.03326114616093424,0.042830979037281364,0.003351947683450454,-0.07855377002801751
436,0.025054,0.01846,-0.02036630676526096,-0.024785499656470183,-0.24323554522652754,-0.014805617375364717,-0.03880601027014436,0.022504185510447087,0.03725195361752975,0.008245600464314747,-0.1277672906736506
437,0.002515,-0.02676,0.02273350080462339,-0.04180438228515033,-0.2523483353028615,-0.08584074154960611,-0.05187285669530666,-0.020676133536264265,0.03288307866215406,-0.0007590487686548917,-0.08529908994441131
438,0.002515,-0.021828,0.03746224707304953,-0.07516910007201354,-0.21910267563865124,-0.08256379122072136,-0.05617107006443816,-0.02705544444345843,0.04056366837018133,0.007449342559475531,-0.08339508319134127
439,0.002515,-0.01747,0.02474211232232703,-0.05236423358161533,-0.19077558369394199,-0.07710768068701838,-0.05041036121755661,-0.008062341742518646,0.041013946927199674,0.00324988945343951,-0.10139599703619326
440,0.013329,0.023188,0.03947352205577637,-0.029034414498055137,-0.18715285892782094,0.0011879294724820976,-0.0442880344013174,-0.0502204952721239,0.0027676727858061195,-0.01505289319202524,-0.12943928772470498
441,0.131423,0.223614,0.03032794770387304,-0.02790254576588913,-0.21298488989493897,0.12683774706201226,0.05561745082173698,0.04470330384764029,0.024199289599870156,0.009143783073896294,-0.16461702357942123
442,0.002515,-0.019047,0.025192326471022777,-0.011020894504927901,-0.18520716798574174,-0.08429847753365118,-0.049431773364704924,-0.024547842214375185,0.03783206258805785,-0.010208974618040925,-0.11769743367255381
443,0.056145,0.08866,0.018607384758193325,-0.007830348426117663,-0.2080600661411209,0.13665794819846505,-0.04709492181897785,-0.025737096378781948,-0.043674043904198157,-0.006180963926111076,-0.15116859024653445
444,0.002515,-0.020865,0.029391523676741294,-0.07693611036284266,-0.24711781226939505,-0.08603752456886603,-0.048863551570349044,-0.009088009773006805,0.04293640597823295,0.010573017264230754,-0.11931139250131369
445,0.013329,0.01993,0.03376873711468723,-0.05719270720119979,-0.20926957489804815,-0.009945391232485707,-0.04799357099924383,-0.03812090908747025,0.0475343864783434,-0.02097750801431081,-0.07898392321891871
446,0.005059,0.010723,-0.00607717232543932,-0.06216820407368046,-0.2290266605272193,0.005796859086862073,-0.058091766238153694,-0.05025710766016328,0.04402424938506539,-0.016034530882801813,-0.1560896191412711
447,0.662462,0.378776,0.028808030223722855,-0.026409131774885037,0.2362400058360743,0.1449572156605957,-0.04118313598209803,-0.03930350101374677,0.04681595372133157,-0.0008202648885875278,-0.11395001618338611
448,0.013329,0.018891,0.021521691666927974,-0.026308496118531588,-0.20950393000819045,-0.007604839371731005,-0.06280231926313343,0.0023995730067742902,0.05103679596977916,-0.023862950994512574,-0.10536245024414292
449,0.013329,0.02007,0.01716705939563537,-0.0036214054033578873,-0.18492742023479886,-0.0011114614991678984,-0.05503833527922437,-0.02072402840054486,0.038728334711477665,-0.01558476183929804,-0.13409580421970177
450,0.013329,0.017005,0.015712929298747794,-0.022613776200824037,-0.228772835381578,-0.006889715722910371,-0.04685018355243713,-0.025985484367587425,0.03931114672095559,-0.011412510093191455,-0.11286684403822184
451,0.14543,0.118714,-0.021654267652569975,-0.06179107754323106,-0.24048005128545433,0.1492724522133515,0.04671100710830277,0.0157356202730288,-0.06778848914050972,-0.00812573273202023,-0.13516045746439165
452,0.005032,0.055971,0.029038589260680724,0.07924498767952794,-0.2159019968014581,-0.08827620134668612,-0.04688258668646612,-0.026114945620683897,0.04297202206604339,-0.008379873970980478,-0.16182235218366564
453,0.002515,-0.02174,0.029454972801102996,-0.01779689527527497,-0.24071453482737934,-0.08340755743688212,-0.04858973578916788,-0.03344097205491211,0.035952701632701804,-0.0014793281494849062,-0.12368417882627075
454,0.013329,0.01266,0.0265455785991049,-0.05001827272380123,-0.21236899405504464,-0.011321340445265919,-0.06779710838662549,-0.02354289696103166,0.03498004505040709,-0.04520507909335363,-0.1560425832084854
455,0.060156,0.052737,0.023765309114252824,-0.022013350096192926,-0.21453744716166706,0.0037728788702227137,-0.05482285495718592,0.02927664100597242,0.043628743574443594,-0.034368503476705614,-0.14641105069876675
456,0.002515,-0.02605,0.02179992572880079,-0.03214781061274758,-0.20165470142799324,-0.07413280230006601,-0.06733518376780623,-0.025586622009896517,0.02147474201905962,-0.035694547984083294,-0.14100371164647277
457,0.106229,0.10493,-0.016949412639194913,-0.0664538471528684,-0.21420448310585025,0.13828193732925398,-0.03857790009685555,0.025359276026573837,-0.03556068198478358,-0.028089026947419184,-0.11203452514633504
458,0.013329,0.027656,0.03225130527557306,-0.011347194010382467,-0.18856304540577631,-0.002132340588607339,-0.03807423639384178,-0.04265408660818833,0.06170567751124232,-0.005300663272658495,-0.10387297749517602
459,0.002515,-0.025053,0.02115554966124841,-0.030738056966613806,-0.2403571108118419,-0.0768238887018943,-0.0686101059921649,-0.02715688428515122,0.014808479836890183,-0.018896948322182975,-0.0512490841521271
460,0.776847,0.422197,-0.0260981214245963,-0.03922161025259323,0.24661157899859174,0.1715585073052713,0.05120209159867102,0.031015365458833384,-0.04084487786529757,-0.014850458473813768,-0.1189082113994249
461,0.002515,-0.018589,0.0331708477881228,-0.05477793427760851,-0.20574873518106862,-0.07262234528453668,-0.06297937951016497,-0.006338630657623658,0.0359948644001182,-0.03765979376826719,-0.14365442499236222
462,0.0,-0.05118,-0.029351655316927346,-0.029759742839577122,-0.21725547926473573,-0.08438432926482588,-0.04690606064219962,-0.03245805222380721,0.04084479435652993,-0.0038543892585533985,-0.11119529308038624
463,0.043701,0.035274,0.022077466462477432,-0.06681450644617663,-0.2238230751496863,-0.072300143296653,0.05451849034004912,-0.014827367426975359,0.0401339767563619,0.003601367878662896,-0.11380297261608309
464,0.087543,0.13581,0.03362794160387224,-0.03270338454530318,-0.21465826040846658,0.1367915963187403,-0.03754576078509151,-0.028322733682308168,0.045157063494276437,0.01742124315940953,-0.15491530871575768
465,0.087543,0.129344,0.03219316696728238,-0.022693222546296195,-0.2312098445871876,0.1320150019524203,-0.052325081259603244,-0.033947422272828466,0.02777927310793861,-0.024100019131243423,-0.1274181166698626
466,0.060156,0.030694,0.03833028048957328,-0.023660648292294764,-0.1848311452996144,-0.007770199026660735,-0.05392640322232793,0.0072556913773638865,0.024475457198210964,0.011716043821978646,-0.14074428495777358
467,0.269717,0.255807,-0.032376936954848584,-0.08506859998514375,-0.19991623107388104,0.1325911071142835,0.04919750090623376,-0.010449731514297695,0.04024160797282185,-0.01450404987422256,0.10275984674802695
468,0.013329,0.021483,0.031707574808332126,-0.09257555870333069,-0.21736207333728988,-0.002938209890932278,-0.054773489277607744,-0.0364103147976132,0.05559956840617544,0.023627115908339668,-0.07725597997849624
469,0.002515,-0.02088,0.01893334910382493,-0.04102854604320014,-0.23336863120234355,-0.07287076661963833,-0.04714558004457553,-0.046714544638993084,0.04354317214264802,-0.017511992249562205,-0.11728839202829555
470,0.013329,0.019335,0.03389092690382175,-0.05490899861068556,-0.20263066761531948,-0.0014980315081763067,-0.07013406009072137,-0.011343934402602689,0.03419068102671026,-0.023942919982588462,-0.13927122960309118
471,0.14543,0.112487,-0.02732484829357306,-0.004529014518269584,-0.21801165547977405,0.12584592461249017,0.02374445906532738,0.015628625200779015,-0.026812488648488845,-0.031650211567062256,-0.10281490999038306
472,0.035106,0.153077,-0.014862078089307137,-0.04353528322565026,-0.22214355281311363,0.13770160918246035,0.033802576277523616,-0.015431171360361907,0.03130935288651619,0.006814212918782449,-0.11707660480490965
473,0.002515,-0.029236,0.02548337935557102,-0.03726452483945216,-0.213786961562076,-0.08781987692529011,-0.05334632476041541,-0.03738100861324258,0.017385712113056128,-0.043897810279506386,-0.10907368156168411
